chunk_name,emb_0,emb_1,emb_2,emb_3,emb_4,emb_5,emb_6,emb_7,emb_8,emb_9,emb_10,emb_11,emb_12,emb_13,emb_14,emb_15,emb_16,emb_17,emb_18,emb_19,emb_20,emb_21,emb_22,emb_23,emb_24,emb_25,emb_26,emb_27,emb_28,emb_29,emb_30,emb_31,emb_32,emb_33,emb_34,emb_35,emb_36,emb_37,emb_38,emb_39,emb_40,emb_41,emb_42,emb_43,emb_44,emb_45,emb_46,emb_47,emb_48,emb_49,emb_50,emb_51,emb_52,emb_53,emb_54,emb_55,emb_56,emb_57,emb_58,emb_59,emb_60,emb_61,emb_62,emb_63,emb_64,emb_65,emb_66,emb_67,emb_68,emb_69,emb_70,emb_71,emb_72,emb_73,emb_74,emb_75,emb_76,emb_77,emb_78,emb_79,emb_80,emb_81,emb_82,emb_83,emb_84,emb_85,emb_86,emb_87,emb_88,emb_89,emb_90,emb_91,emb_92,emb_93,emb_94,emb_95,emb_96,emb_97,emb_98,emb_99,emb_100,emb_101,emb_102,emb_103,emb_104,emb_105,emb_106,emb_107,emb_108,emb_109,emb_110,emb_111,emb_112,emb_113,emb_114,emb_115,emb_116,emb_117,emb_118,emb_119,emb_120,emb_121,emb_122,emb_123,emb_124,emb_125,emb_126,emb_127,emb_128,emb_129,emb_130,emb_131,emb_132,emb_133,emb_134,emb_135,emb_136,emb_137,emb_138,emb_139,emb_140,emb_141,emb_142,emb_143,emb_144,emb_145,emb_146,emb_147,emb_148,emb_149,emb_150,emb_151,emb_152,emb_153,emb_154,emb_155,emb_156,emb_157,emb_158,emb_159,emb_160,emb_161,emb_162,emb_163,emb_164,emb_165,emb_166,emb_167,emb_168,emb_169,emb_170,emb_171,emb_172,emb_173,emb_174,emb_175,emb_176,emb_177,emb_178,emb_179,emb_180,emb_181,emb_182,emb_183,emb_184,emb_185,emb_186,emb_187,emb_188,emb_189,emb_190,emb_191,emb_192,emb_193,emb_194,emb_195,emb_196,emb_197,emb_198,emb_199,emb_200,emb_201,emb_202,emb_203,emb_204,emb_205,emb_206,emb_207,emb_208,emb_209,emb_210,emb_211,emb_212,emb_213,emb_214,emb_215,emb_216,emb_217,emb_218,emb_219,emb_220,emb_221,emb_222,emb_223,emb_224,emb_225,emb_226,emb_227,emb_228,emb_229,emb_230,emb_231,emb_232,emb_233,emb_234,emb_235,emb_236,emb_237,emb_238,emb_239,emb_240,emb_241,emb_242,emb_243,emb_244,emb_245,emb_246,emb_247,emb_248,emb_249,emb_250,emb_251,emb_252,emb_253,emb_254,emb_255,emb_256,emb_257,emb_258,emb_259,emb_260,emb_261,emb_262,emb_263,emb_264,emb_265,emb_266,emb_267,emb_268,emb_269,emb_270,emb_271,emb_272,emb_273,emb_274,emb_275,emb_276,emb_277,emb_278,emb_279,emb_280,emb_281,emb_282,emb_283,emb_284,emb_285,emb_286,emb_287,emb_288,emb_289,emb_290,emb_291,emb_292,emb_293,emb_294,emb_295,emb_296,emb_297,emb_298,emb_299,emb_300,emb_301,emb_302,emb_303,emb_304,emb_305,emb_306,emb_307,emb_308,emb_309,emb_310,emb_311,emb_312,emb_313,emb_314,emb_315,emb_316,emb_317,emb_318,emb_319,emb_320,emb_321,emb_322,emb_323,emb_324,emb_325,emb_326,emb_327,emb_328,emb_329,emb_330,emb_331,emb_332,emb_333,emb_334,emb_335,emb_336,emb_337,emb_338,emb_339,emb_340,emb_341,emb_342,emb_343,emb_344,emb_345,emb_346,emb_347,emb_348,emb_349,emb_350,emb_351,emb_352,emb_353,emb_354,emb_355,emb_356,emb_357,emb_358,emb_359,emb_360,emb_361,emb_362,emb_363,emb_364,emb_365,emb_366,emb_367,emb_368,emb_369,emb_370,emb_371,emb_372,emb_373,emb_374,emb_375,emb_376,emb_377,emb_378,emb_379,emb_380,emb_381,emb_382,emb_383,emb_384,emb_385,emb_386,emb_387,emb_388,emb_389,emb_390,emb_391,emb_392,emb_393,emb_394,emb_395,emb_396,emb_397,emb_398,emb_399,emb_400,emb_401,emb_402,emb_403,emb_404,emb_405,emb_406,emb_407,emb_408,emb_409,emb_410,emb_411,emb_412,emb_413,emb_414,emb_415,emb_416,emb_417,emb_418,emb_419,emb_420,emb_421,emb_422,emb_423,emb_424,emb_425,emb_426,emb_427,emb_428,emb_429,emb_430,emb_431,emb_432,emb_433,emb_434,emb_435,emb_436,emb_437,emb_438,emb_439,emb_440,emb_441,emb_442,emb_443,emb_444,emb_445,emb_446,emb_447,emb_448,emb_449,emb_450,emb_451,emb_452,emb_453,emb_454,emb_455,emb_456,emb_457,emb_458,emb_459,emb_460,emb_461,emb_462,emb_463,emb_464,emb_465,emb_466,emb_467,emb_468,emb_469,emb_470,emb_471,emb_472,emb_473,emb_474,emb_475,emb_476,emb_477,emb_478,emb_479,emb_480,emb_481,emb_482,emb_483,emb_484,emb_485,emb_486,emb_487,emb_488,emb_489,emb_490,emb_491,emb_492,emb_493,emb_494,emb_495,emb_496,emb_497,emb_498,emb_499,emb_500,emb_501,emb_502,emb_503,emb_504,emb_505,emb_506,emb_507,emb_508,emb_509,emb_510,emb_511,emb_512,emb_513,emb_514,emb_515,emb_516,emb_517,emb_518,emb_519,emb_520,emb_521,emb_522,emb_523,emb_524,emb_525,emb_526,emb_527,emb_528,emb_529,emb_530,emb_531,emb_532,emb_533,emb_534,emb_535,emb_536,emb_537,emb_538,emb_539,emb_540,emb_541,emb_542,emb_543,emb_544,emb_545,emb_546,emb_547,emb_548,emb_549,emb_550,emb_551,emb_552,emb_553,emb_554,emb_555,emb_556,emb_557,emb_558,emb_559,emb_560,emb_561,emb_562,emb_563,emb_564,emb_565,emb_566,emb_567,emb_568,emb_569,emb_570,emb_571,emb_572,emb_573,emb_574,emb_575,emb_576,emb_577,emb_578,emb_579,emb_580,emb_581,emb_582,emb_583,emb_584,emb_585,emb_586,emb_587,emb_588,emb_589,emb_590,emb_591,emb_592,emb_593,emb_594,emb_595,emb_596,emb_597,emb_598,emb_599,emb_600,emb_601,emb_602,emb_603,emb_604,emb_605,emb_606,emb_607,emb_608,emb_609,emb_610,emb_611,emb_612,emb_613,emb_614,emb_615,emb_616,emb_617,emb_618,emb_619,emb_620,emb_621,emb_622,emb_623,emb_624,emb_625,emb_626,emb_627,emb_628,emb_629,emb_630,emb_631,emb_632,emb_633,emb_634,emb_635,emb_636,emb_637,emb_638,emb_639,emb_640,emb_641,emb_642,emb_643,emb_644,emb_645,emb_646,emb_647,emb_648,emb_649,emb_650,emb_651,emb_652,emb_653,emb_654,emb_655,emb_656,emb_657,emb_658,emb_659,emb_660,emb_661,emb_662,emb_663,emb_664,emb_665,emb_666,emb_667,emb_668,emb_669,emb_670,emb_671,emb_672,emb_673,emb_674,emb_675,emb_676,emb_677,emb_678,emb_679,emb_680,emb_681,emb_682,emb_683,emb_684,emb_685,emb_686,emb_687,emb_688,emb_689,emb_690,emb_691,emb_692,emb_693,emb_694,emb_695,emb_696,emb_697,emb_698,emb_699,emb_700,emb_701,emb_702,emb_703,emb_704,emb_705,emb_706,emb_707,emb_708,emb_709,emb_710,emb_711,emb_712,emb_713,emb_714,emb_715,emb_716,emb_717,emb_718,emb_719,emb_720,emb_721,emb_722,emb_723,emb_724,emb_725,emb_726,emb_727,emb_728,emb_729,emb_730,emb_731,emb_732,emb_733,emb_734,emb_735,emb_736,emb_737,emb_738,emb_739,emb_740,emb_741,emb_742,emb_743,emb_744,emb_745,emb_746,emb_747,emb_748,emb_749,emb_750,emb_751,emb_752,emb_753,emb_754,emb_755,emb_756,emb_757,emb_758,emb_759,emb_760,emb_761,emb_762,emb_763,emb_764,emb_765,emb_766,emb_767,emb_768,emb_769,emb_770,emb_771,emb_772,emb_773,emb_774,emb_775,emb_776,emb_777,emb_778,emb_779,emb_780,emb_781,emb_782,emb_783,emb_784,emb_785,emb_786,emb_787,emb_788,emb_789,emb_790,emb_791,emb_792,emb_793,emb_794,emb_795,emb_796,emb_797,emb_798,emb_799,emb_800,emb_801,emb_802,emb_803,emb_804,emb_805,emb_806,emb_807,emb_808,emb_809,emb_810,emb_811,emb_812,emb_813,emb_814,emb_815,emb_816,emb_817,emb_818,emb_819,emb_820,emb_821,emb_822,emb_823,emb_824,emb_825,emb_826,emb_827,emb_828,emb_829,emb_830,emb_831,emb_832,emb_833,emb_834,emb_835,emb_836,emb_837,emb_838,emb_839,emb_840,emb_841,emb_842,emb_843,emb_844,emb_845,emb_846,emb_847,emb_848,emb_849,emb_850,emb_851,emb_852,emb_853,emb_854,emb_855,emb_856,emb_857,emb_858,emb_859,emb_860,emb_861,emb_862,emb_863,emb_864,emb_865,emb_866,emb_867,emb_868,emb_869,emb_870,emb_871,emb_872,emb_873,emb_874,emb_875,emb_876,emb_877,emb_878,emb_879,emb_880,emb_881,emb_882,emb_883,emb_884,emb_885,emb_886,emb_887,emb_888,emb_889,emb_890,emb_891,emb_892,emb_893,emb_894,emb_895,emb_896,emb_897,emb_898,emb_899,emb_900,emb_901,emb_902,emb_903,emb_904,emb_905,emb_906,emb_907,emb_908,emb_909,emb_910,emb_911,emb_912,emb_913,emb_914,emb_915,emb_916,emb_917,emb_918,emb_919,emb_920,emb_921,emb_922,emb_923,emb_924,emb_925,emb_926,emb_927,emb_928,emb_929,emb_930,emb_931,emb_932,emb_933,emb_934,emb_935,emb_936,emb_937,emb_938,emb_939,emb_940,emb_941,emb_942,emb_943,emb_944,emb_945,emb_946,emb_947,emb_948,emb_949,emb_950,emb_951,emb_952,emb_953,emb_954,emb_955,emb_956,emb_957,emb_958,emb_959,emb_960,emb_961,emb_962,emb_963,emb_964,emb_965,emb_966,emb_967,emb_968,emb_969,emb_970,emb_971,emb_972,emb_973,emb_974,emb_975,emb_976,emb_977,emb_978,emb_979,emb_980,emb_981,emb_982,emb_983,emb_984,emb_985,emb_986,emb_987,emb_988,emb_989,emb_990,emb_991,emb_992,emb_993,emb_994,emb_995,emb_996,emb_997,emb_998,emb_999,emb_1000,emb_1001,emb_1002,emb_1003,emb_1004,emb_1005,emb_1006,emb_1007,emb_1008,emb_1009,emb_1010,emb_1011,emb_1012,emb_1013,emb_1014,emb_1015,emb_1016,emb_1017,emb_1018,emb_1019,emb_1020,emb_1021,emb_1022,emb_1023
onlinemedia.idea2mobile.com_chunk1.txt,-0.060946542769670486,-0.01245186198502779,-0.005910876672714949,0.01092556957155466,0.011165661737322807,-0.0029339559841901064,-0.05449362471699715,-0.01482260413467884,0.004657198674976826,0.030801022425293922,0.010077713057398796,-0.01981719210743904,-0.023190787062048912,0.018291516229510307,-0.02596341259777546,-0.0010897292522713542,0.004524422809481621,-0.024939624592661858,0.02794633060693741,-0.034648347645998,-0.0012333423364907503,0.027350470423698425,-0.0395473875105381,0.010453558526933193,-0.0028966888785362244,0.018452854827046394,0.009179573506116867,0.009949003346264362,0.05498998984694481,0.0367431566119194,-0.004022211767733097,-0.007867716252803802,0.02170633152127266,-0.006151823792606592,-0.0131868626922369,-0.009132382459938526,-0.0057527730241417885,-0.006827087607234716,-0.055943142622709274,0.05006901174783707,0.019758887588977814,0.011263547465205193,0.030049996450543404,-0.03242862597107887,0.0364023819565773,-0.009720534086227417,-0.060483820736408234,0.014035673812031746,-0.0031488691456615925,-0.044704619795084,-0.01248530950397253,0.022413069382309914,0.003638664958998561,-0.03762935474514961,0.03583340346813202,0.03522433340549469,-0.011599819175899029,-0.0119028864428401,-0.05470151826739311,-0.013291625306010246,-0.06594785302877426,-0.007419360801577568,-0.0005091299535706639,-0.0043277135118842125,0.03507551550865173,0.03367544710636139,-0.01907542534172535,0.0018396483501419425,-0.005143909249454737,-0.030460640788078308,0.021279415115714073,0.031761933118104935,0.02320869080722332,-0.0003630188584793359,-0.039594072848558426,0.048290498554706573,-0.02577543631196022,-0.0164862759411335,0.0015928319189697504,0.009929417632520199,-0.017443759366869926,-0.002470222534611821,-0.01949719339609146,-0.016984067857265472,-0.023074908182024956,0.029054753482341766,-0.03163095936179161,0.07361501455307007,-0.007313935551792383,0.044982582330703735,-0.054895248264074326,-0.005108949728310108,0.019008951261639595,-0.019120382145047188,-0.008223146200180054,-0.034987498074769974,-0.008810468949377537,-0.01747594028711319,-0.001287051709368825,0.013530808500945568,0.02085479535162449,-0.003725552698597312,0.005730749107897282,-0.024892907589673996,-0.004787954036146402,-0.005682357121258974,0.012948191724717617,0.006918577942997217,-0.02493819035589695,0.00103785062674433,-0.012824364006519318,0.04818706959486008,-0.003550468711182475,0.038040466606616974,0.005416486412286758,-0.020118968561291695,-0.001074866857379675,0.02992720901966095,0.003925572149455547,0.018436258658766747,0.011861249804496765,0.04107625409960747,0.016437452286481857,-0.04638079181313515,0.013549895957112312,0.004192336928099394,0.01365782879292965,-0.01915183663368225,-0.008423889987170696,-0.045063316822052,0.04765920713543892,-0.04230283200740814,0.004751408938318491,0.006803006399422884,-0.03285583108663559,-0.0018520609010010958,0.032747287303209305,-0.02256454899907112,-0.0027936093974858522,-0.052342791110277176,0.04694003984332085,0.03136178478598595,-0.02422984130680561,-0.01610685884952545,0.05197937786579132,0.014686508104205132,-0.02764902636408806,0.056645434349775314,0.010830611921846867,-0.005769279785454273,-0.034540943801403046,-0.026854878291487694,-0.011648805812001228,0.008999115787446499,-0.01240154542028904,-0.0006408239714801311,-0.021157288923859596,0.04854859411716461,-0.060143645852804184,0.03505858778953552,0.027573494240641594,0.00705430842936039,-0.03352868929505348,0.05693410709500313,-0.006344739813357592,0.006158710923045874,0.03982671722769737,0.03369905799627304,-0.00585189089179039,-0.023743070662021637,0.037716519087553024,-0.04993007332086563,0.017025277018547058,0.0008895719656720757,-0.01374870166182518,0.02071578986942768,0.07487721741199493,0.019000088796019554,-0.038899052888154984,-0.0033990207593888044,-0.017999019473791122,-0.023121314123272896,-0.030978580936789513,0.025326484814286232,-0.04998935014009476,0.013308653607964516,-0.06289929151535034,0.0033202774357050657,0.023331161588430405,0.042740605771541595,-0.01602836884558201,-0.007877513766288757,0.02198070101439953,0.04593447595834732,0.04236648231744766,-0.03265741840004921,0.032723553478717804,-0.025708096101880074,0.014795406721532345,-0.06580519676208496,0.0019795200787484646,0.0523412749171257,-0.006611578166484833,-0.03481344133615494,-0.01792282797396183,-0.015377067029476166,0.019315851852297783,0.006937050260603428,0.008837915025651455,-0.009819094091653824,0.01586252823472023,-0.0217799860984087,-0.008434637449681759,-0.04306839033961296,0.002103380858898163,0.015927305445075035,-0.006729838903993368,-0.016255896538496017,0.011727866716682911,0.010218081995844841,-0.004028816241770983,0.02850882150232792,-0.015968114137649536,0.02253432758152485,-0.014712146483361721,-0.025393838062882423,0.020123569294810295,0.02132883295416832,0.028138432651758194,0.021125437691807747,0.012189514935016632,-0.0036407592706382275,-0.030438560992479324,-0.05054694786667824,0.04714728519320488,-0.01401395071297884,-0.02465328387916088,0.00628065736964345,0.023183997720479965,0.04341462254524231,-0.013595238327980042,-0.034426648169755936,-0.016226738691329956,0.016408562660217285,-0.05210809409618378,-0.04871594160795212,-0.014681181870400906,0.04075169935822487,-0.03232816606760025,0.02106376551091671,-0.01664622128009796,-0.00030631819390691817,-0.02833869308233261,0.03597481548786163,-0.033571355044841766,-0.029514644294977188,-0.012506559491157532,-0.02817072905600071,-0.0006796561065129936,-0.011418910697102547,0.0011375072645023465,-0.011452043429017067,0.02623417228460312,0.021990463137626648,0.011396232061088085,-0.0042393505573272705,-0.009754297323524952,0.018705911934375763,0.029452349990606308,0.02430662140250206,0.003529969835653901,0.007059270050376654,-0.03487506881356239,-0.02421080879867077,-0.015041791833937168,0.02300836332142353,-0.030711129307746887,-0.040623780339956284,0.052486248314380646,0.022336656227707863,-0.051825378090143204,-0.003904323559254408,0.037862785160541534,-0.0011889601591974497,0.02909485064446926,-0.02797517739236355,-0.011770898476243019,0.01185691636055708,0.07223857939243317,-0.06034800037741661,-0.005768591072410345,0.050133977085351944,0.0613945797085762,-0.058291781693696976,-0.049639347940683365,-0.00652131624519825,-0.01528039388358593,-0.15391162037849426,-0.03355616331100464,-0.02801608294248581,0.019562967121601105,0.023816151544451714,0.00800072867423296,-0.06353525817394257,-0.016306381672620773,-0.015292122028768063,0.0005877510411664844,-0.011215809732675552,-0.04166460782289505,0.016053522005677223,0.00042282932554371655,-0.02821415476500988,0.025456944480538368,-0.04074423387646675,-0.035048164427280426,-0.026911430060863495,-0.06376300752162933,0.008428327739238739,-0.05009657144546509,0.03987517207860947,-0.028336185961961746,0.02059670351445675,-0.07959438860416412,0.024080613628029823,0.017742404714226723,-0.02984457090497017,-0.022183967754244804,0.019473586231470108,0.00786406546831131,0.010804512538015842,-0.0015057175187394023,0.03675936535000801,0.04158254340291023,-0.04243940860033035,-0.015569589100778103,0.006402827799320221,-0.0031538542825728655,0.031837377697229385,0.04623950272798538,-0.014928284101188183,0.04216524958610535,-0.007782662287354469,-0.025687042623758316,-0.016545269638299942,0.059542521834373474,-0.05218612402677536,0.012132261879742146,0.016985606402158737,-0.01568356715142727,0.003003009594976902,0.0033356479834765196,0.010057362727820873,-0.0052636838518083096,0.002080546459183097,0.05462389439344406,-0.02442890591919422,0.0031622706446796656,-0.0289231538772583,-0.044772639870643616,-0.009463818743824959,-0.017186559736728668,-0.023153387010097504,0.0015899769496172667,0.04338160902261734,-0.010836057364940643,0.01799589954316616,-0.06780435889959335,0.056149739772081375,0.04319392517209053,-0.046467043459415436,-0.005809572525322437,0.0202846210449934,0.02634395658969879,-0.002440520329400897,-0.05622463673353195,-0.024497859179973602,-0.09851793944835663,-0.031118685379624367,0.05917239189147949,-0.004021070431917906,-0.007594333495944738,-0.018469495698809624,-0.05051698908209801,0.01452330406755209,0.03052106499671936,0.03215792030096054,0.22263894975185394,0.02038625441491604,0.045810773968696594,0.010108313523232937,0.04854089766740799,-0.0052343555726110935,-0.012846608646214008,0.060634687542915344,-0.017672685906291008,-0.02950975112617016,-0.014194381423294544,0.04148034378886223,0.007952083833515644,0.011760997585952282,0.009963620454072952,0.016753848642110825,-0.058881890028715134,-0.006826375145465136,0.05398229882121086,0.03609183430671692,0.023437047377228737,0.03361205384135246,0.03285706415772438,-0.02581723965704441,-0.061844322830438614,-0.0084830978885293,0.008267027325928211,-0.028496522456407547,-0.01899285987019539,0.07297957688570023,0.00407292740419507,0.05652764067053795,0.0006302523543126881,-0.005725601688027382,-0.008511005900800228,0.00800980906933546,0.05716400220990181,-0.031188664957880974,-0.028543373569846153,0.018949715420603752,0.01038292981684208,-0.008744210004806519,-0.01659509725868702,0.010965163819491863,-0.0287990253418684,-0.007632589899003506,-0.0349157378077507,-0.0096567552536726,-0.01706167310476303,0.02931874990463257,-0.03180981054902077,-0.041027557104825974,-0.020193900913000107,-0.012179980054497719,0.05184035003185272,0.01937875710427761,-0.013158708810806274,0.005634206347167492,-0.03980504721403122,0.024090277031064034,0.020723357796669006,0.011014952324330807,-0.02881714515388012,-0.012990430928766727,-0.0054734195582568645,-0.03230338543653488,0.0076360697858035564,0.012583552859723568,-0.019200043752789497,-0.0025535556487739086,-0.006892943289130926,0.034400973469018936,0.017044104635715485,0.007081662770360708,0.032584212720394135,0.02093074470758438,-0.008087346330285072,0.033218927681446075,0.005976736545562744,-0.013201086781919003,0.02156369388103485,-0.021200545132160187,-0.006702585145831108,-0.010126088745892048,0.0016274107620120049,-0.03397499397397041,-0.02278563380241394,0.07346232980489731,0.001289805513806641,0.004455846734344959,0.012205148115754128,0.011680074036121368,-0.017666496336460114,0.016623783856630325,-0.032895397394895554,-0.03008875995874405,0.03001873940229416,0.003882023738697171,-0.021742725744843483,-0.018811378628015518,0.008043093606829643,0.007957225665450096,0.0019275180529803038,-0.03341393917798996,0.02603662945330143,0.03500773012638092,-0.004559121560305357,0.014332878403365612,0.012885813601315022,0.03271038830280304,0.008803696371614933,0.01882144808769226,0.010232084430754185,-0.04600849747657776,0.017314955592155457,0.03844555467367172,-0.020949240773916245,-0.004042336717247963,0.02978731319308281,0.014974240213632584,0.0025600967928767204,-0.00684571685269475,-0.03497481718659401,0.018730541691184044,0.015013488009572029,-0.018761828541755676,-0.016625912860035896,0.03152550384402275,-0.04598783701658249,0.022834548726677895,0.0367540568113327,-0.026290012523531914,0.047343526035547256,0.014082981273531914,0.036767393350601196,-0.001685500144958496,-0.008602559566497803,0.025623317807912827,0.003107016906142235,0.07562903314828873,0.012896860018372536,-0.0043668984435498714,0.010339601896703243,-0.03690186142921448,0.03046712838113308,0.018198292702436447,-0.013555034063756466,-0.019402317702770233,-0.03001243807375431,0.019681917503476143,-0.01530106645077467,0.0014836654299870133,0.026156093925237656,-0.06254857778549194,-0.0005438236403279006,-0.0504450686275959,0.008949454873800278,0.0027163696940988302,0.0388791523873806,-0.020435120910406113,-0.021526142954826355,0.01754298061132431,-0.018904512748122215,0.07048273086547852,-0.019830891862511635,0.04360877349972725,0.021199213340878487,0.024446632713079453,0.040404435247182846,-0.05349481478333473,-0.019244147464632988,0.00024762647808529437,-0.015468438155949116,0.008936688303947449,0.018723903223872185,0.0008469183812849224,-0.034402597695589066,0.014070120640099049,-0.007278789300471544,-0.016857951879501343,-0.013502627611160278,-0.018698856234550476,-0.00432938989251852,-0.035459429025650024,-0.00506733451038599,-0.006186407990753651,-0.010561255738139153,-0.021986840292811394,0.008206643164157867,-0.04003720358014107,0.0012635091552510858,0.06914009153842926,0.031373925507068634,-0.01485489122569561,0.023333609104156494,-0.017433349043130875,0.02814609557390213,0.021649831905961037,0.011836128309369087,-0.023172741755843163,-0.03477921709418297,0.051191043108701706,-0.014468656852841377,-0.02558869495987892,-0.028129151090979576,0.0023388029076159,0.01085039135068655,0.07890158146619797,6.43289095023647e-05,0.07115485519170761,0.006881324108690023,0.01835024729371071,-0.07370878756046295,-0.015513338148593903,-0.02160627953708172,0.003994004800915718,-0.011066094972193241,0.005733591504395008,-0.04791214317083359,0.0452750138938427,0.009888339787721634,-0.017130466178059578,0.04438668116927147,-0.040945809334516525,0.0015267695998772979,0.05164872854948044,0.02568534016609192,-0.025271670892834663,-0.02110394649207592,0.030393000692129135,-0.005048079416155815,0.0006661343504674733,0.04791752249002457,0.002304438967257738,-0.04758539795875549,0.028462236747145653,-0.02278466336429119,0.025304581969976425,0.0038997645024210215,-0.033483557403087616,-0.036445096135139465,-0.04402473196387291,0.011876690201461315,0.010788748040795326,-0.013291329145431519,-0.01827315054833889,-0.017774252220988274,-0.036031726747751236,0.003220532089471817,0.04388745129108429,0.008405148051679134,-0.029000042006373405,0.021569332107901573,-0.024586670100688934,-0.01875476725399494,0.022428356111049652,0.010894055478274822,0.02805429883301258,-0.022956477478146553,0.02002347633242607,-0.011306416243314743,-0.01098627969622612,0.007021801546216011,-0.02688770182430744,-0.054929304867982864,-0.038840401917696,-0.01457777339965105,-0.0005551237263716757,-0.02466650865972042,-0.03945198655128479,-0.02216126210987568,-0.023629099130630493,-0.022241070866584778,-0.04798102006316185,0.02520783431828022,0.0018438751576468349,-0.038951046764850616,0.01611517369747162,-0.019274983555078506,0.037166889756917953,-0.038391631096601486,0.04593314230442047,0.03428291156888008,0.04233786463737488,-0.018278071656823158,0.026138540357351303,0.019991157576441765,0.0471128411591053,-0.01679294742643833,-0.03896079212427139,-0.00745356734842062,0.0203551072627306,-0.03744286298751831,-0.005708797834813595,0.021478980779647827,0.012494119815528393,-0.02647809311747551,0.039222050458192825,-0.014054374769330025,-0.03228113427758217,-0.023525729775428772,0.0803462415933609,0.013095217756927013,-0.005650029517710209,0.019619043916463852,-0.008167492225766182,0.0039927284233272076,-0.02606855519115925,0.06718290597200394,0.023890923708677292,-0.05842448025941849,-0.03813964128494263,-0.047689758241176605,0.013745621778070927,-0.00012427142064552754,-0.014913714490830898,0.033142078667879105,-0.02247491292655468,0.008148861117661,-0.010138744488358498,0.02284775674343109,-0.011106759309768677,-0.0314432792365551,-0.007237540557980537,-0.05432368814945221,0.013342040590941906,-0.030332524329423904,-0.029350565746426582,0.005968192126601934,-0.04851451516151428,-0.02793305367231369,-0.0032444281969219446,-0.01984064094722271,-0.004694866016507149,0.0014682379551231861,-0.012926485389471054,0.018355481326580048,-0.01195447612553835,0.019451769068837166,-0.001727009890601039,0.009112474508583546,0.022408459335565567,0.07398169487714767,-0.0005417433567345142,-0.015385669656097889,0.033123135566711426,-0.041427355259656906,0.009963704273104668,-0.009667317382991314,-0.0007931735017336905,-0.013382076285779476,-0.008258488029241562,-0.029952606186270714,-0.02763434872031212,0.03301980346441269,0.014427060261368752,-0.06199008598923683,0.028882522135972977,0.02220139093697071,0.013149131089448929,-0.05750676617026329,0.04499275982379913,-0.0222720205783844,0.024264242500066757,-0.007652511354535818,0.031425297260284424,-0.036894068121910095,-0.07123983651399612,0.02047567069530487,-0.03057197667658329,0.01105479896068573,0.0006076712743379176,0.002404856262728572,-0.03269796073436737,-0.04097003489732742,0.014131559990346432,0.014264801517128944,0.035707928240299225,0.009450246579945087,0.013316468335688114,-0.012253896333277225,-0.024319257587194443,-0.027173621580004692,-0.031799618154764175,0.02024158276617527,-0.0534176230430603,-0.00440745847299695,0.02915607951581478,0.05400531738996506,0.012809633277356625,0.012757017277181149,0.01697681099176407,-0.014653339982032776,-0.029596572741866112,-0.14519667625427246,0.0281517431139946,-0.01782531850039959,0.006652920041233301,-0.02242143638432026,0.025445763021707535,0.003478206926956773,-0.038785066455602646,0.03158235177397728,-0.03619299829006195,-0.014885797165334225,0.011889836750924587,0.014792176894843578,-0.029498199000954628,0.026578234508633614,0.05049687623977661,-0.018302083015441895,-0.03951043263077736,-0.022794390097260475,0.06136208400130272,0.00045537532423622906,-0.00021409738110378385,0.05627022683620453,0.024668846279382706,0.029051000252366066,-0.0016428205417469144,-0.01423582062125206,-0.004086780361831188,-0.017550820484757423,-0.1350092589855194,0.009915165603160858,-0.037123750895261765,-0.009456750936806202,0.01862650364637375,0.00687321787700057,-0.006760610267519951,0.0052466364577412605,-0.01331436075270176,0.018645646050572395,0.00010541174560785294,-0.005833905190229416,-0.0026578849647194147,-0.02861747145652771,0.03829847648739815,-0.020503226667642593,0.07028330117464066,0.008223423734307289,-0.020079348236322403,-0.029190020635724068,-0.01490609347820282,0.03536315634846687,-0.004439678508788347,-0.023756898939609528,0.03904978930950165,0.0022753009106963873,-0.01633329689502716,-0.05201035737991333,-0.006445630919188261,-0.028826413676142693,0.04551912471652031,-0.019441144540905952,0.036685824394226074,-0.015181251801550388,-0.011118904687464237,1.5501724419664242e-06,0.060586683452129364,-0.10192068666219711,0.019345905631780624,-0.002709165681153536,0.013910779729485512,-0.00921990443021059,-0.028974106535315514,0.029352644458413124,0.010378560982644558,0.010868599638342857,-0.011112596839666367,0.005511580500751734,-0.032925084233284,0.00928482599556446,-0.04015793278813362,0.05617399141192436,0.0057967184111475945,-0.03322229161858559,-0.010033806785941124,0.03967966511845589,0.032900262624025345,-0.0019820579327642918,0.0029565957374870777,-0.1308804601430893,-0.012555679306387901,-0.03141907602548599,-0.03989650309085846,-0.003753859316930175,0.018565071746706963,-0.026720697060227394,0.03430553898215294,-0.02883744239807129,-0.027947094291448593,0.00915314257144928,-0.004330301657319069,0.0353308729827404,-0.0067297350615262985,-0.005516065284609795,0.002221822738647461,-0.007449599448591471,-0.007436075247824192,0.024143055081367493,0.004964021034538746,0.009725723415613174,-0.013602107763290405,-0.008488829247653484,0.014232964254915714,0.015487534925341606,-0.009494446218013763,-0.04359221085906029,-0.022711705416440964,-0.02844579890370369,0.055166322737932205,-0.02137753739953041,0.01117635052651167,0.0489942841231823,-0.027547253295779228,0.0183767918497324,-0.036617033183574677,0.02411888726055622,0.04850182682275772,-0.019954739138484,0.02650119550526142,-0.030130648985505104,-0.03145889565348625,-0.010323875583708286,0.002100287703797221,-0.005720650311559439,0.0337236188352108,0.02272634394466877,-0.004222735296934843,-0.019118670374155045,0.007551367394626141,-0.03883953019976616,-0.043163612484931946,-0.0008758839685469866,0.0022417204454541206,-0.04157954454421997,-0.032539285719394684,-0.00027100948500446975,-0.000382401020033285,0.08008885383605957,-0.002290502656251192,-0.0024359317030757666,-0.05128566548228264,-0.02508150041103363,0.013455342501401901,0.05617614835500717,-0.0046769073233008385,0.007322376128286123,-0.016550853848457336,-0.019651545211672783,0.03208381310105324,-0.005504952743649483,0.09956144541501999,-0.047919221222400665,-0.015193706378340721,-0.027730248868465424,-0.04862546548247337,0.030463464558124542,0.03425361588597298,0.008866697549819946,-0.06207869201898575,-0.0230201855301857,0.004314192570745945,0.00803956389427185,-0.021603165194392204,-0.0058348760940134525,0.016074495390057564,0.002185637131333351,0.009204222820699215,0.023622212931513786,0.048507511615753174,0.0510861836373806,0.0014604267198592424,0.00398182263597846,-0.018720803782343864,0.008382856845855713,0.01602024957537651,0.033092040568590164,0.002239139750599861,-0.05227276310324669,-0.01221008412539959,0.0651591569185257,-0.009965107776224613,-0.02451556734740734,-0.01058155670762062,0.04489396885037422,-0.040419287979602814,0.0640721470117569,0.03425454720854759,-0.016663309186697006,-0.016963312402367592,0.054928265511989594,0.030626704916357994,-0.047221094369888306,0.012044866569340229,0.04003132879734039,0.00711232703179121,-0.00013553355529438704,0.001965670147910714,-0.028216205537319183,-0.05252517759799957,-0.05023408681154251,0.022964484989643097,0.004999736789613962,-0.013027122244238853,0.01194414496421814,0.032930269837379456,0.029861435294151306,0.01931747980415821,0.042093582451343536,-0.003912597894668579,0.03563264384865761,0.031065288931131363,0.037623096257448196,0.017799727618694305,0.01096679363399744,-0.038895778357982635,0.02348235435783863,-0.05718042701482773,-0.02626333199441433,0.017086952924728394,-0.014057306572794914,-0.01417720876634121,0.023959506303071976,0.0028563281521201134,0.011002892628312111,0.025562189519405365,-0.006600367370992899,0.02011544071137905,0.028185367584228516,-0.009379826486110687,-0.010953696444630623,-0.04548133909702301,0.02506304159760475,0.02545488439500332,-0.018094511702656746,0.00038832632708363235
onlinemedia.idea2mobile.com_chunk2.txt,-0.046162910759449005,-0.009923511184751987,-0.019457466900348663,0.014086896553635597,-0.00761202909052372,-0.020982693880796432,-0.016311200335621834,0.0032626714091748,-0.018088500946760178,0.048143886029720306,-0.009714902378618717,-0.003882057499140501,-0.03285141661763191,0.020665796473622322,-0.023868553340435028,-0.009792634285986423,-0.015677694231271744,0.005282697267830372,0.01775365322828293,-0.025151068344712257,-0.005840894766151905,0.04107457026839256,0.008865760639309883,0.008428733795881271,0.005702278111129999,0.04220745339989662,-0.008320542983710766,-0.006002981215715408,0.016843261197209358,0.02383994124829769,0.009897550567984581,-0.015640467405319214,0.0394376665353775,0.002779802307486534,-0.02835373766720295,-0.020624207332730293,0.0009124096250161529,-0.016966065391898155,-0.04439983889460564,0.04501859098672867,0.01837751269340515,0.026248103007674217,0.015072733163833618,-0.012738578952848911,0.07040924578905106,-0.021951839327812195,-0.02716900035738945,0.008860601112246513,0.0016420709434896708,-0.03484884276986122,-0.002559243468567729,0.035894881933927536,0.004747210070490837,-0.05563918873667717,-0.006685428321361542,0.00878093484789133,-0.017547711730003357,0.001267836312763393,-0.0611400231719017,-0.00041606693412177265,-0.08071275800466537,-0.0014458043733611703,-0.03854888305068016,-0.032089706510305405,0.045086704194545746,0.04723338782787323,-0.009749977849423885,0.028200853615999222,-0.01741873100399971,-0.036522138863801956,0.025403695181012154,0.015008237212896347,-0.012929858639836311,-0.0057981135323643684,-0.04364935681223869,0.05476272478699684,-0.029873665422201157,0.012981679290533066,0.011983138509094715,-0.006604665890336037,-0.007759309373795986,-0.003594482084736228,-0.01941399835050106,0.0067770457826554775,-0.05350451171398163,0.023637600243091583,-0.009464573115110397,0.07294853031635284,-0.01222266349941492,0.014126274734735489,-0.052739452570676804,-0.005490797106176615,0.013961420394480228,-0.022525060921907425,-0.03393864631652832,-0.04724263399839401,-0.012436527758836746,0.011045744642615318,-0.005709343124181032,0.03185116499662399,0.013143165968358517,-0.01312487106770277,0.029598738998174667,-0.011057575233280659,0.006788953207433224,-0.01103273592889309,0.039560895413160324,-0.010377914644777775,-0.047401782125234604,-0.012963997200131416,-0.0007576935458928347,0.012257058173418045,-0.010138251818716526,0.04029731824994087,-0.00640401104465127,-0.010003435425460339,0.0049799042753875256,0.02007751539349556,0.00044871107093058527,0.010049398057162762,0.020370690152049065,0.03522835299372673,0.01568455807864666,-0.03181742504239082,0.037662066519260406,0.011399847455322742,0.003489210270345211,0.006347143091261387,0.002669377252459526,-0.04628806188702583,0.052223533391952515,-0.01742125302553177,-0.003279604483395815,0.03192230686545372,-0.03154700621962547,-0.036839649081230164,0.017466699704527855,-0.023604873567819595,-0.014719904400408268,-0.018383117392659187,0.021596115082502365,0.028158782050013542,-0.06285367906093597,-0.04011085629463196,0.052396200597286224,-0.010239250026643276,-0.006451157853007317,0.04308575391769409,0.031189123168587685,-0.025563376024365425,-0.024157417938113213,-0.012995487079024315,-0.0008837520144879818,0.0071654655039310455,-0.0032697611022740602,0.023827504366636276,0.012375356629490852,0.04022293537855148,-0.04223937913775444,0.03683364763855934,-0.0032037922646850348,0.0030483321752399206,-0.019787820056080818,0.03132348507642746,-0.001080695423297584,0.010124902240931988,0.022080136463046074,0.033588334918022156,-0.013486050069332123,-0.023052407428622246,0.013457019813358784,-0.009322244673967361,-0.01275667455047369,0.00027235946618020535,0.0007687712786719203,0.012895165011286736,0.058397576212882996,0.02645179256796837,-0.017427030950784683,0.005077013745903969,-0.015153272077441216,-0.017807798460125923,-0.01894775778055191,-0.002780737355351448,-0.030351674184203148,-0.004326150752604008,-0.06097187474370003,-0.0038185089360922575,0.005395624786615372,0.053380317986011505,-0.031789883971214294,-0.04870877414941788,0.03572455793619156,-0.00689972098916769,0.03308406099677086,-0.026744624599814415,-0.0030121817253530025,-0.029435614123940468,0.03671073541045189,-0.0812017172574997,-0.007926995866000652,0.07938389480113983,0.006379683967679739,-0.03990534693002701,-0.018763398751616478,0.006517769768834114,0.022596383467316628,0.0016834253910928965,0.014118998311460018,-0.03500561788678169,-0.0039002380799502134,0.027599412947893143,-0.006364356726408005,-0.05091605335474014,-0.004324708133935928,0.034591954201459885,0.009816361591219902,0.012728163972496986,0.015705544501543045,-0.0175466351211071,-0.023494219407439232,0.018585525453090668,-0.012029651552438736,0.014367399737238884,-0.023397810757160187,-0.04000737890601158,0.017583345994353294,-0.006785582285374403,0.045099154114723206,-0.00578638119623065,-0.003299429314211011,-0.008457744494080544,-0.02193978987634182,-0.07125407457351685,0.03234415128827095,-0.03377712145447731,-0.044559065252542496,0.01618078351020813,0.016112832352519035,0.02277093008160591,0.0016881630290299654,-0.020539384335279465,-0.02408028580248356,-0.0016875864239409566,-0.06697791069746017,-0.058097753673791885,0.031791456043720245,0.04950413107872009,-0.043154649436473846,0.018457330763339996,-0.007267246022820473,-0.01199763547629118,0.003028174163773656,0.04690675437450409,-0.007809746544808149,-0.029412051662802696,-0.01158251240849495,-0.023623382672667503,-0.0013209030730649829,-0.026197535917162895,-0.016428936272859573,-0.012847556732594967,0.05238483473658562,0.013725691474974155,0.04692995548248291,0.010921809822320938,-0.007507417816668749,-0.032723866403102875,0.051175057888031006,0.0071367924101650715,-0.02010812610387802,0.024581456556916237,-0.02737748622894287,-0.02731660008430481,-0.0037660845555365086,0.0025323061272501945,0.01244057435542345,-0.043323617428541183,0.051745232194662094,0.03201702609658241,-0.0235308688133955,-0.004976951517164707,0.006696398835629225,0.02224491350352764,0.0502387136220932,-0.041150011122226715,0.02216278575360775,0.0011624874314293265,0.06953878700733185,-0.08684522658586502,-0.003059687791392207,0.046968426555395126,0.0641942024230957,-0.04321425408124924,-0.022438835352659225,0.019516127184033394,-0.017631802707910538,-0.1479259431362152,-0.008311229757964611,-0.013753093779087067,0.040627505630254745,0.002083093160763383,0.02726489119231701,-0.06183580681681633,0.0016255610389634967,-0.001998558873310685,0.0017805307870730758,-0.03225601091980934,-0.060758110135793686,-0.017972096800804138,-0.01953672245144844,-0.03045487403869629,0.022521506994962692,-0.029570378363132477,-0.011621914803981781,-0.05827009305357933,-0.05956827104091644,0.017382455989718437,-0.09216813743114471,0.05551115795969963,-0.013467968441545963,0.026318227872252464,-0.05430155619978905,0.03129808232188225,5.663427509716712e-05,-0.02088678441941738,-0.007567078806459904,-0.013522196561098099,-0.02552397921681404,0.013803401030600071,-0.014947932213544846,0.04637281224131584,0.039391350001096725,-0.027175845578312874,0.00833715870976448,0.010738644748926163,-0.006795008201152086,0.03424103185534477,0.015472988598048687,-0.00700910110026598,0.03017851524055004,0.02206297032535076,-0.007921482436358929,-0.0011271309340372682,0.020999900996685028,-0.012523855082690716,-0.0006393698859028518,0.004804058466106653,-0.04024757817387581,0.019993795081973076,-0.013209712691605091,-0.031124040484428406,-0.03906427323818207,0.03549085557460785,0.03765871748328209,-0.011251121759414673,-0.004632660187780857,-0.041448820382356644,-0.027196861803531647,-0.012646722607314587,0.01525825820863247,-0.023344486951828003,0.017332402989268303,0.06688898056745529,0.011989991180598736,0.0362517274916172,-0.06051991134881973,0.049566421657800674,0.014235391281545162,-0.04796966165304184,0.01155164185911417,0.006569101009517908,0.019480025395751,0.0035304001066833735,-0.0655691996216774,-0.0320340059697628,-0.09075769782066345,-0.012272346764802933,0.04198072850704193,-0.020377831533551216,0.025337936356663704,0.003848670283332467,-0.0443868562579155,0.015596071258187294,0.041501570492982864,0.07051324844360352,0.22129130363464355,0.00661039724946022,0.027420394122600555,-0.015433833003044128,0.024052217602729797,-0.013616222888231277,-0.025929469615221024,0.054764121770858765,-0.0013778136344626546,-0.04252908006310463,-0.0005805419059470296,0.018808860331773758,-0.0028098116163164377,0.006774581968784332,0.0016783005557954311,0.05458984896540642,-0.01879788003861904,-0.01611553691327572,0.04116373136639595,0.023439934477210045,0.0018896970432251692,0.00933268666267395,0.010208151303231716,0.006991054397076368,-0.06654395908117294,0.014445888809859753,-0.0067024510353803635,-0.026930339634418488,-0.013588124886155128,0.06158412992954254,0.012290272861719131,0.03277982771396637,-0.001013169065117836,-0.007586532738059759,0.007488172966986895,-0.010335425846278667,0.06369569152593613,-0.016718275845050812,-0.013854093849658966,0.028818931430578232,-0.012452309019863605,-0.024920186027884483,-0.015216769650578499,0.025717008858919144,-0.03360825404524803,0.007767330389469862,-0.017474958673119545,-0.009368840605020523,-0.006851432844996452,0.03864315524697304,-0.0015232062432914972,-0.05207943543791771,-0.0009482385939918458,0.02769465744495392,0.03424840793013573,0.0025850050151348114,-0.006531159859150648,-0.0039287228137254715,-0.04392610862851143,0.030102534219622612,0.010975755751132965,-0.008439993485808372,-0.014454152435064316,0.014200081117451191,-0.003476913785561919,-0.016060689464211464,0.04809536412358284,-0.009799931198358536,-0.009998545050621033,0.00825063418596983,-0.0040738205425441265,0.04169780761003494,0.026240093633532524,0.005968310404568911,0.037049371749162674,-0.0035411291755735874,0.006709852255880833,0.03072841838002205,-0.02901046723127365,-0.0008306980598717928,-0.023229150101542473,-0.011529187671840191,0.019801784306764603,-0.0016508229309692979,0.002197286579757929,-0.03155374154448509,-0.002247540047392249,0.05530409514904022,0.009488222189247608,0.00853591226041317,0.0041734701953828335,-0.004613082855939865,-0.01583815924823284,0.013616316020488739,-0.01199585571885109,-0.01829400658607483,0.009899823926389217,0.0210465919226408,-0.03193662315607071,-0.024367038160562515,0.02318529784679413,-0.0024866193998605013,0.016720186918973923,-0.044207390397787094,0.060946300625801086,-0.011949777603149414,0.0016767967026680708,0.02039211429655552,0.017954349517822266,0.06556302309036255,0.003689014120027423,0.0107216602191329,0.007622928824275732,-0.0647663027048111,0.027189187705516815,0.028570618480443954,0.038832444697618484,-0.017057880759239197,0.034241776913404465,0.0011631603119894862,-0.01530530210584402,0.020629284903407097,-0.006319473963230848,-0.012858331203460693,0.020124245434999466,-0.06444744020700455,-0.008292068727314472,0.0090896375477314,-0.036377422511577606,0.0626523345708847,0.027152443304657936,-0.026127275079488754,0.030378594994544983,0.019435644149780273,0.05387674644589424,0.018370170146226883,-0.03111317940056324,0.04039552062749863,0.017636919394135475,0.033132974058389664,-0.005392927676439285,0.038702115416526794,-0.016176829114556313,-0.07034777104854584,-0.003290617372840643,0.004390487913042307,0.004072356037795544,-0.03893637657165527,-0.01498645730316639,0.015825171023607254,0.008495531976222992,-0.016775483265519142,0.041029177606105804,-0.05284538492560387,-0.008742837235331535,-0.04126960411667824,-0.006194368004798889,-0.013175059109926224,0.012463243678212166,-0.023585377261042595,-0.008350829593837261,0.019038882106542587,0.01910453848540783,0.07355672866106033,-0.0018602468771860003,0.05920843407511711,0.01578657515347004,0.00463863555341959,0.06916573643684387,-0.06428562849760056,-0.012514800764620304,-0.005082032643258572,-0.027530612424016,0.02586834505200386,-0.004850282799452543,-0.030459919944405556,-0.04909384623169899,0.0035512063186615705,0.0031510447151958942,0.002207258017733693,-0.020969772711396217,-0.027636660262942314,0.003318730741739273,-0.0529581718146801,-0.004755341447889805,-0.0005560303688980639,-0.018131686374545097,-0.02427026815712452,-0.0014525302685797215,-0.04429025575518608,0.007044567726552486,0.06944847851991653,0.004104204475879669,-0.0002797429624479264,0.03333810716867447,-0.00900319404900074,0.05294898897409439,0.02745184302330017,0.02067539468407631,0.016807489097118378,-0.04928027465939522,0.04370569437742233,-0.019248588010668755,-0.02875511534512043,-0.035624925047159195,-0.006669253576546907,0.007189007941633463,0.07291529327630997,0.011216245591640472,0.03645646572113037,0.026538515463471413,-0.0029530224855989218,-0.06438613682985306,-0.04399712383747101,-0.031047625467181206,-0.002089704619720578,0.009558220393955708,0.0187049712985754,-0.04159606620669365,0.05006419122219086,-0.012320151552557945,-0.006978205405175686,0.033390335738658905,-0.05282868444919586,0.013280651532113552,0.07117646187543869,0.013225714676082134,-0.023574402555823326,0.0012532536638900638,0.04689185693860054,-0.0021970076486468315,0.005084618926048279,0.024744635447859764,0.002775291446596384,-0.050536658614873886,0.028325941413640976,-0.054299455136060715,0.01667213998734951,0.013900639489293098,0.0010476629249751568,-0.023085545748472214,-0.002378953853622079,0.026713013648986816,0.0007313215173780918,-0.006179234944283962,-0.025288183242082596,-0.0121074840426445,-0.03060971572995186,-0.014450117014348507,0.009708326309919357,0.006258801557123661,-0.06038728356361389,-0.0008991817594505847,-0.03474190831184387,0.0005959506961517036,0.0344061404466629,-0.015126395970582962,0.0058059608563780785,-0.01119240466505289,0.0039561232551932335,-0.012706720270216465,0.025741932913661003,0.0004379260935820639,-0.012575605884194374,-0.058101020753383636,-0.01104029081761837,-0.033759720623493195,0.0010050814598798752,-0.017420276999473572,-0.04884900897741318,-0.04310081899166107,-0.006499358918517828,-0.01791655644774437,-0.03977889567613602,0.03806432709097862,0.00989620853215456,-0.057745661586523056,0.019151289016008377,-0.02517598681151867,0.05239081382751465,-0.04307691752910614,0.03403260558843613,0.02575424313545227,0.0625067800283432,-0.009197322651743889,0.026974251493811607,0.022923791781067848,0.0006704151746816933,0.009346868842840195,-0.05489994212985039,0.012604628689587116,-0.008044961839914322,-0.012540546245872974,0.004563800059258938,0.022925464436411858,0.01771766133606434,-0.023674627766013145,0.028525184839963913,-0.014629237353801727,-0.04413837939500809,-0.042104970663785934,0.0367732048034668,0.01135861873626709,0.008585716597735882,-0.007705753669142723,0.001412118668667972,-0.01371987909078598,-0.01312991138547659,0.025607820600271225,0.0016629658639431,-0.07551512867212296,-0.033964503556489944,-0.023819269612431526,0.03331603854894638,-0.01748577691614628,-0.016924459487199783,0.04053262621164322,-0.03487486019730568,-0.015046382322907448,-0.004378512967377901,-0.01827225089073181,0.0030268945265561342,-0.026211025193333626,-0.011667001061141491,-0.037081845104694366,-0.03306441009044647,-0.01378638669848442,-0.037335142493247986,-0.011033887043595314,-0.011679809540510178,-0.023737870156764984,0.007849367335438728,-0.05529268831014633,0.0009651950094848871,0.0041822753846645355,-0.0251800287514925,0.05757687985897064,-0.012738351710140705,0.017642037943005562,0.047887612134218216,0.016407132148742676,0.04300324246287346,0.05765116214752197,-0.007972050458192825,-0.009413938038051128,0.009004277177155018,-0.04503040015697479,0.01824105903506279,-0.015286928042769432,-0.004970130976289511,-0.023918503895401955,-0.03138129785656929,-0.048453398048877716,-0.009191906079649925,0.017606042325496674,0.015603573992848396,-0.053758978843688965,-0.00448156613856554,0.022693056613206863,0.002196738263592124,-0.07146500051021576,0.06229521706700325,-0.01645289547741413,0.0217890702188015,0.015001462772488594,0.012587527744472027,-0.040628831833601,-0.05338441580533981,0.008979160338640213,-0.021036436781287193,0.01003720797598362,0.003541541751474142,0.025220433250069618,-0.005497110076248646,-0.021617619320750237,0.015627505257725716,0.012518363073468208,0.013186483643949032,0.025960616767406464,0.02549917623400688,-0.007670267950743437,-0.01132138166576624,-0.04119642451405525,-0.03593591973185539,0.037905510514974594,-0.023792464286088943,-0.024445291608572006,-0.001325265970081091,0.03818126395344734,0.038576457649469376,-0.0011288595851510763,-0.006031251046806574,-0.0178120955824852,-0.018610747531056404,-0.1491924524307251,0.046931903809309006,-0.044632747769355774,-0.0015823375433683395,-0.03569532185792923,0.028021560981869698,0.010071530006825924,-0.02901798114180565,0.04584478959441185,-0.021736031398177147,-0.014783763326704502,0.03292081877589226,0.046959467232227325,-0.04312979429960251,0.03435167297720909,0.013750494457781315,-0.024773281067609787,-0.03614604473114014,-0.004952729679644108,0.05741022154688835,0.0023440122604370117,0.015233268029987812,0.02949846163392067,0.028080930933356285,0.03582126647233963,0.01878320798277855,-0.0023124422878026962,-0.011301849037408829,-0.012376545928418636,-0.08871416002511978,0.013756535947322845,-0.06690940260887146,0.0053993272595107555,0.02590201236307621,0.016705475747585297,0.00852301437407732,0.003101023845374584,-0.0180932879447937,-0.007932987064123154,0.022281896322965622,-0.021683432161808014,0.011539742350578308,-0.02068401500582695,0.031153453513979912,-0.022575629875063896,0.06699701398611069,0.027575386688113213,-0.030665816739201546,-0.03468691557645798,-0.0022044365759938955,0.0341634526848793,0.008993403054773808,-0.0163138248026371,0.043278083205223083,0.010692164301872253,-0.010127627290785313,-0.059673432260751724,-0.045069996267557144,-0.02653137966990471,0.024969477206468582,-0.030113523826003075,0.040293123573064804,-0.03082527406513691,-0.031732987612485886,-0.009202610701322556,0.028821785002946854,-0.06407353281974792,0.0357414186000824,-0.012974957935512066,0.0246934425085783,0.007330048363655806,-0.021998126059770584,0.03379920870065689,0.0036259342450648546,0.01527339406311512,-0.020003464072942734,0.0145098976790905,-0.005240961443632841,-0.03738925978541374,-0.04544700309634209,0.010002636350691319,0.0471491776406765,-0.03125959262251854,0.014556384645402431,0.030425403267145157,0.04133133962750435,-0.013134359382092953,0.00693512475118041,-0.13016487658023834,-0.002480439841747284,-0.026541661471128464,-0.029421573504805565,0.009717445820569992,0.004861584864556789,-0.02916596457362175,0.017199093475937843,-0.027079584077000618,-0.03903905302286148,0.03375611826777458,0.015087387524545193,0.01952461153268814,-0.038795582950115204,-0.009129277430474758,-0.0007369589293375611,-0.030551869422197342,-0.025824513286352158,0.06837797164916992,-0.013786506839096546,0.007791317068040371,-0.0374295637011528,-0.003842063946649432,0.011675103567540646,0.02215668372809887,0.030040442943572998,-0.05272248387336731,-0.0241734329611063,0.007945648394525051,0.017567628994584084,-0.011910222470760345,0.016960779204964638,0.05894411727786064,-0.002003838773816824,-0.014327183365821838,-0.04457886889576912,0.019106615334749222,0.02240513637661934,-0.007397420704364777,0.013051406480371952,-0.02410048060119152,-0.04985982924699783,0.0007176153012551367,-0.02397564984858036,-0.012523393146693707,0.040263060480356216,0.0328499972820282,-0.005966182332485914,-0.028307946398854256,0.03112173080444336,-0.02552034519612789,-0.04735623300075531,-0.01806602068245411,-0.018139757215976715,-0.03011888638138771,-0.03554067388176918,-0.007523895241320133,0.033657073974609375,0.06321513652801514,0.012055194936692715,-0.006453807465732098,-0.03330095484852791,-0.02857077866792679,0.021415110677480698,0.05045928806066513,0.04491811618208885,0.016206638887524605,-0.012490002438426018,-0.03647175431251526,0.04232252389192581,-0.03133995831012726,0.08255656063556671,-0.029307276010513306,-0.027881717309355736,-0.014875578694045544,-0.053220514208078384,0.02316213771700859,0.00926261767745018,-0.024178043007850647,-0.032076284289360046,-0.01801530458033085,-0.011588246561586857,-0.006021329667419195,-0.012936139479279518,-0.011422947980463505,0.05353669449687004,-0.002031720709055662,0.01793678291141987,0.010306388139724731,0.0556505024433136,0.03575800731778145,-0.009420032612979412,0.00444880872964859,-0.0008089742623269558,0.012835592962801456,0.04795616865158081,0.03318605199456215,-0.012881510891020298,-0.008492165245115757,0.03173324093222618,0.05017343536019325,0.0025447215884923935,-0.017868371680378914,-0.01131110917776823,-0.012974625453352928,-0.0008128993213176727,0.04092971980571747,0.07200617343187332,0.008556901477277279,-0.027624594047665596,0.015024635940790176,0.04313620179891586,-0.023393597453832626,-0.009940073825418949,0.024302249774336815,-0.027060361579060555,0.003922981210052967,-0.015112618915736675,-0.009981721639633179,-0.06527508795261383,-0.01265658438205719,0.014261455275118351,0.012500632554292679,-0.019032994285225868,0.042090486735105515,0.029183167964220047,0.01072025392204523,0.0040395548567175865,0.05510878935456276,-0.022768059745430946,0.014875713735818863,0.0111507847905159,0.03204597160220146,0.013018914498388767,0.02085164748132229,-0.02274082601070404,-0.0007757421117275953,-0.03760292008519173,0.011068921536207199,0.02937791310250759,0.004994903691112995,-0.0018703511450439692,0.020283009856939316,0.025649238377809525,0.01182449422776699,0.022372320294380188,0.02583148330450058,-0.002566044917330146,0.009768256917595863,-0.015061319805681705,-7.774272671667859e-05,-0.051532208919525146,-0.026231296360492706,0.02471531741321087,-0.013464752584695816,0.006880051456391811
onlinemedia.idea2mobile.com_chunk3.txt,-0.04467581585049629,-0.003892121836543083,-0.004298090469092131,0.010449760593473911,-0.016579318791627884,-0.02699066698551178,-0.0275654885917902,-0.020729588344693184,-0.005192798096686602,0.03426489606499672,0.003492470597848296,-0.024552317336201668,-0.02751767821609974,0.03787672892212868,-0.03868347778916359,-0.00830779131501913,0.016030559316277504,0.012855954468250275,0.011453752405941486,-0.025680629536509514,0.01580369472503662,0.04192069172859192,-0.02540409006178379,0.0012016503605991602,-0.014258998446166515,0.0444042906165123,0.009262776002287865,0.00991915725171566,0.029810016974806786,0.0202987901866436,-0.013755422085523605,-0.01879618503153324,0.019821379333734512,-0.007292035035789013,-0.02730296179652214,-0.013086264953017235,0.02092543989419937,0.016769107431173325,-0.05496027320623398,0.04353750869631767,0.006423890590667725,-0.0010329456999897957,-0.00400313688442111,-0.025008345022797585,0.03716430068016052,-0.00490181427448988,-0.05776539444923401,0.0008360781939700246,0.0014498080126941204,-0.028530195355415344,0.01666204072535038,0.015150142833590508,0.008890188299119473,-0.02548431232571602,-0.0413924977183342,0.010415435768663883,0.007179750129580498,-0.002091874135658145,-0.05847124755382538,0.014105226844549179,-0.06988610327243805,0.008002868853509426,0.0010820570169016719,-0.056017257273197174,0.026197299361228943,0.037633731961250305,0.00845401082187891,-0.006567468401044607,0.0002822766837198287,-0.005912433844059706,0.012035859748721123,0.03335202857851982,-0.00966221746057272,0.022610638290643692,-0.05447624251246452,0.06396329402923584,-0.01960849203169346,-0.005410611163824797,0.0140525558963418,0.0284519512206316,0.0008353228913620114,-0.04161515831947327,0.0007825535140000284,-0.011307462118566036,-0.019194427877664566,0.03598405420780182,-0.02587783709168434,0.10710565000772476,-0.004093374125659466,0.022251466289162636,-0.04117180407047272,-0.0181228369474411,0.02199694514274597,-0.0260874442756176,-0.023137826472520828,-0.031808722764253616,0.015094195492565632,0.01819070614874363,-0.026666313409805298,0.03277130424976349,0.056020814925432205,-0.02525411918759346,-0.008773536421358585,-0.011046514846384525,0.0009042920428328216,-0.02957955189049244,0.05628140643239021,0.0072140260599553585,-0.031778909265995026,-0.008085610345005989,-0.0054381596855819225,0.03496518358588219,0.004697844386100769,0.04270670935511589,0.011494047939777374,-0.01011620368808508,0.03320556879043579,0.027066992595791817,0.008946646936237812,0.02928575687110424,0.002005668357014656,0.04469287395477295,0.014055955223739147,-0.012507148087024689,0.034821342676877975,0.007413273677229881,-0.033328454941511154,0.04064081609249115,-0.006963843479752541,-0.044619061052799225,0.025489896535873413,-0.017937202006578445,-0.02963857725262642,0.01569570228457451,-0.041143592447042465,-0.02799275331199169,0.0277242474257946,-0.02897438034415245,-0.010955826379358768,-0.037277620285749435,0.031159020960330963,0.025713017210364342,-0.08475588262081146,-0.03883149474859238,0.07587479054927826,-0.003568315180018544,-0.014547676779329777,0.046046603471040726,0.010011541657149792,0.003480150830000639,-0.026352284476161003,-0.04656873270869255,-0.015835298225283623,-0.017679838463664055,-0.014844132587313652,0.033826664090156555,-0.010295270942151546,0.046158354729413986,-0.04585922136902809,0.052792422473430634,-0.001953888451680541,0.015933100134134293,-0.0287324208766222,0.053056035190820694,-0.0239696204662323,-0.00673561729490757,0.04013412073254585,0.05305551365017891,-0.03845248743891716,-0.033396583050489426,-0.010070123709738255,0.005128314718604088,-0.010279564186930656,-0.0005377369816415012,-0.0016675881342962384,0.02268652431666851,0.04021165147423744,0.03087523579597473,-0.0225637499243021,0.009781782515347004,-0.04402610659599304,-0.010304474271833897,-0.010470185428857803,0.003676716238260269,-0.029408732429146767,0.03458814322948456,-0.0628102719783783,-0.004117554984986782,0.01961437799036503,0.031905386596918106,-0.039496034383773804,-0.05832355096936226,0.06539177149534225,0.03777684271335602,0.030782751739025116,-0.032058730721473694,-0.03195538371801376,-0.02703855186700821,0.03339843451976776,-0.054682452231645584,0.015221714042127132,0.07369576394557953,-0.003048333339393139,-0.008550623431801796,-0.02316022850573063,0.006205718498677015,0.0030291073489934206,-0.0019309622002765536,0.024824846535921097,-0.040153611451387405,0.016613636165857315,0.007555882912129164,0.012261567637324333,-0.03137584403157234,0.0007967849378474057,0.025826239958405495,-0.016725128516554832,0.009838874451816082,0.03385893628001213,-0.00697670690715313,-0.01820647530257702,0.02207181602716446,-0.012881654314696789,0.032000020146369934,-0.01665889471769333,-0.02207767777144909,0.012682395987212658,0.0051498739048838615,0.0320650078356266,0.006591736804693937,0.01494443230330944,-0.005698349326848984,-0.03943292051553726,-0.08236414194107056,0.05785195529460907,-0.023042693734169006,-0.02123628556728363,0.03563299402594566,0.02947271801531315,0.023448513820767403,-0.0004394510469865054,-0.01746213808655739,-0.033567991107702255,0.015253311954438686,-0.06261990964412689,-0.06527820229530334,-0.01658795028924942,0.025982510298490524,-0.024543343111872673,0.032536137849092484,0.009313000366091728,-0.014231459237635136,-0.008804275654256344,0.049777835607528687,-0.019877197220921516,-0.028580250218510628,-0.01671195775270462,-0.02470274828374386,0.005423302762210369,-0.012254982255399227,-0.010113561525940895,-0.007582797668874264,0.02587531879544258,0.024624180048704147,0.030193746089935303,0.011543584987521172,0.0011385651305317879,-0.04307473078370094,0.03864932805299759,-0.005944418255239725,0.007783264387398958,0.008690538816154003,-0.017173495143651962,-0.01331179216504097,0.004911571275442839,0.03220859542489052,-0.02726488560438156,-0.030805904418230057,0.04591977968811989,0.031532883644104004,-0.020023947581648827,-0.013833937235176563,0.029148418456315994,0.01186772808432579,0.05219842866063118,-0.028798550367355347,0.025046538561582565,-0.02696775272488594,0.04276707023382187,-0.08318349719047546,0.0054503073915839195,-0.0051998053677380085,0.06325370073318481,-0.06315942853689194,-0.018425283953547478,-0.023758715018630028,0.008127553388476372,-0.17400886118412018,-0.02725667878985405,0.0076415566727519035,0.011171383783221245,-0.010834642685949802,0.0452507808804512,-0.04121740907430649,0.01899411529302597,-0.006132745649665594,0.022899113595485687,-0.025329409167170525,-0.048475198447704315,-0.01578030362725258,0.01952754706144333,-0.024817124009132385,0.016314545646309853,-0.030148513615131378,-0.04219580441713333,-0.0322091244161129,-0.04939635097980499,0.017964793369174004,-0.048781704157590866,0.03947337716817856,-0.04369746148586273,0.04474128782749176,-0.04196741059422493,0.01694277673959732,0.00921616517007351,-0.056292563676834106,-0.005795935168862343,-0.016851035878062248,0.018321119248867035,0.0005454496713355184,0.0019727759063243866,0.04133858531713486,0.04018837586045265,-0.006494405213743448,0.0006678735953755677,-0.008805911988019943,-0.0073912255465984344,0.017778195440769196,-0.003173617646098137,-0.04079178348183632,0.03290310874581337,0.018318558111786842,-0.008887024596333504,0.010311976075172424,0.011547048576176167,0.0003813276416622102,0.021639658138155937,0.0017414619214832783,-0.034221962094306946,0.0027806581929326057,-0.029029008001089096,0.003648066660389304,-0.04166027531027794,-0.013630712404847145,0.015043864957988262,-0.021224843338131905,0.0024073333479464054,-0.04855520650744438,-0.04145484045147896,-0.032177165150642395,0.0199905876070261,-0.04777867719531059,0.04219880700111389,0.07090913504362106,0.01252101268619299,0.037911415100097656,-0.07266687601804733,0.05979396775364876,0.004195014480501413,-0.04733505845069885,0.03640109673142433,0.0006378422258421779,0.030712658539414406,0.010922457091510296,-0.04161125794053078,-0.032353226095438004,-0.08225298672914505,9.227162081515417e-05,0.045604366809129715,-0.004061161540448666,0.024914540350437164,-0.008284670300781727,-0.01100349985063076,-0.0006984356441535056,0.026015959680080414,0.05670543015003204,0.18198569118976593,0.012778215110301971,0.039163585752248764,-0.021338902413845062,0.033783208578825,0.006750415079295635,-0.03856208547949791,0.08173729479312897,0.018081776797771454,-0.030157947912812233,0.02586681954562664,0.019959576427936554,-0.013113955967128277,0.012948719784617424,-0.017604568973183632,0.0288164671510458,-0.04286466911435127,-0.04358379542827606,0.04107232019305229,0.0318283848464489,0.023536687716841698,0.0050221518613398075,-0.018397118896245956,-0.019926443696022034,-0.10608123242855072,0.019434966146945953,-0.00034385366598144174,0.011212297715246677,0.001008100574836135,0.04297918826341629,0.015688912943005562,0.0789974257349968,0.01386953890323639,-0.029310453683137894,0.016663605347275734,0.018740836530923843,0.02147829532623291,-0.03707089647650719,-0.0028394930996000767,0.045166097581386566,-0.006747192703187466,-0.018604546785354614,-0.027276046574115753,0.005053368397057056,-0.011476118117570877,0.013440567068755627,-0.02447086200118065,-0.023405179381370544,-0.07027451694011688,0.03539527207612991,-0.027064112946391106,-0.035739414393901825,-0.010368697345256805,0.0007223265711218119,0.03791600838303566,0.01523381844162941,-0.009564267471432686,0.009317312389612198,-0.02328273095190525,0.005488513968884945,0.00371513981372118,-0.008030612021684647,-0.025915151461958885,0.006725918967276812,0.01816902682185173,-0.02599002979695797,0.03266236558556557,-0.02330409735441208,-0.010868902318179607,-0.022620901465415955,0.0049747261218726635,0.03222503885626793,0.028665050864219666,-0.02007799595594406,0.007995274849236012,-0.0036051995120942593,0.016087446361780167,0.041880130767822266,-0.006356700323522091,-0.014604507014155388,-0.013308085501194,-0.029922259971499443,-0.004694702103734016,-0.01824578270316124,0.0026111637707799673,-0.04392395541071892,0.0064633795991539955,0.06376916915178299,0.009169705212116241,0.01587265357375145,0.0014794223243370652,-0.007509498856961727,-0.015120496973395348,0.016522245481610298,-0.005583108868449926,-0.04412761330604553,0.047536130994558334,0.019646454602479935,-0.005993653554469347,-0.038186632096767426,0.005870889872312546,0.002309155650436878,0.009013154543936253,-0.013769648969173431,0.04683203250169754,0.002645341446623206,-0.006144165061414242,0.021769123151898384,0.0022928700782358646,0.057718612253665924,0.021131595596671104,0.023946478962898254,0.0046908240765333176,-0.07125484943389893,0.015363133512437344,0.036939188838005066,0.03469390794634819,-0.015304984524846077,0.027635321021080017,-0.01599997468292713,-0.0027609551325440407,-0.01969050243496895,-0.012674477882683277,-0.0029926677234470844,0.01799268089234829,-0.033413391560316086,-0.011525754816830158,-0.02222958207130432,-0.013416212052106857,0.034997016191482544,0.04575112834572792,-0.020042123273015022,0.05697682127356529,0.0019426768412813544,0.051251597702503204,0.007126666605472565,-0.032015666365623474,0.052904050797224045,0.027653316035866737,0.05410931259393692,0.010116217657923698,-0.012246999889612198,-0.007733417209237814,-0.0475284717977047,0.006902549881488085,0.02418520487844944,-0.030392734333872795,-0.009504997171461582,-0.03693406656384468,-0.0054006376303732395,-0.0048036882653832436,-0.008122971281409264,0.02211080677807331,-0.042463868856430054,-0.012065470218658447,-0.024593736976385117,0.0003403086157049984,-0.01830948144197464,0.007997600361704826,-0.022084996104240417,-0.01130465604364872,0.025970937684178352,0.015008166432380676,0.06387707591056824,0.03206216171383858,0.060602255165576935,-0.0003148207033518702,-0.004833511542528868,0.042418308556079865,-0.07659716159105301,-0.007170028984546661,0.016415713354945183,-0.027943450957536697,0.018916595727205276,0.011810075491666794,-0.005049906205385923,-0.0506354421377182,0.030692994594573975,0.0055947694927453995,-0.060552552342414856,0.000755336310248822,-0.018234379589557648,0.011214718222618103,-0.0508594810962677,-0.009267954155802727,-0.015982313081622124,0.014545407146215439,-0.011841380968689919,0.012286745011806488,-0.05253106355667114,-0.00937536358833313,0.08401202410459518,0.025611435994505882,-0.01805112138390541,0.01461031287908554,0.004937632475048304,0.06443546712398529,0.015979446470737457,0.022143373265862465,0.001899859169498086,-0.0344981849193573,0.04153398424386978,-0.011717770248651505,-0.03210319206118584,-0.030834494158625603,0.012685020454227924,0.018827317282557487,0.04135747626423836,-0.011787612922489643,0.029299376532435417,0.02015707828104496,-0.008834876120090485,-0.08526738733053207,-0.02157275564968586,-0.0369819812476635,-0.004612310789525509,-0.002080359263345599,0.02541302517056465,-0.04233996942639351,0.03841709718108177,0.007651881780475378,-0.0020182172302156687,0.04849446937441826,-0.07443013787269592,-0.003288030391559005,0.09772252291440964,-0.0029074707999825478,-0.04061511904001236,-0.0036243777722120285,0.03426103666424751,0.005141603760421276,-0.010321920737624168,0.03683987259864807,0.010136155411601067,-0.03264632821083069,0.01212983950972557,-0.04673629254102707,0.022840140387415886,-0.023458728566765785,-0.02226312831044197,-0.024724896997213364,0.001838641706854105,0.03166508674621582,-0.027628017589449883,0.00907312985509634,-0.013488685712218285,-0.020136695355176926,-0.030101517215371132,-0.028130292892456055,0.048956066370010376,-0.0006800773553550243,-0.03357979655265808,0.010792691260576248,-0.003005110891535878,0.027922609820961952,-0.007039183750748634,0.004365815781056881,-0.0022213852498680353,-0.008051833137869835,0.006596278864890337,-0.021105250343680382,-0.024036496877670288,-0.013143468648195267,-0.016077466309070587,-0.028981713578104973,-0.010577473789453506,-0.014214861206710339,0.010127878747880459,-0.009327567182481289,-0.04007996991276741,-0.016612188890576363,0.0055577862076461315,-0.03555351123213768,-0.026161469519138336,0.030337542295455933,0.011626550927758217,-0.004367568995803595,-0.003263088408857584,0.004148528445512056,0.042256440967321396,-0.014865022152662277,0.041828349232673645,0.04297148808836937,0.03795119747519493,-0.009429569356143475,0.014726120978593826,0.03953010216355324,0.005253111012279987,0.014612802304327488,-0.05815499275922775,0.022850243374705315,-0.01995714381337166,-0.026872806251049042,0.009336752817034721,0.006308347452431917,0.03505345433950424,-0.017345065250992775,0.02288171835243702,-0.03340092673897743,-0.028128288686275482,-0.06369480490684509,0.037836574018001556,0.007073183543980122,0.00828078668564558,-0.023184295743703842,0.003777967067435384,0.009607212617993355,-0.023034801706671715,0.07798712700605392,0.008052727207541466,-0.0804460421204567,-0.03939134627580643,-0.034938860684633255,0.006751213222742081,0.009821752086281776,-0.027689775452017784,0.019051631912589073,-0.036555688828229904,0.0016528768464922905,-0.015692006796598434,0.012691555544734001,0.02517092600464821,-0.02459137886762619,-0.03151378035545349,-0.012801991775631905,-0.014486978761851788,-0.05036160722374916,-0.02416495606303215,0.00367714767344296,-0.04236367344856262,-0.0393621027469635,-0.01609259657561779,-0.030271006748080254,0.009905638173222542,0.013417812064290047,0.011714979074895382,0.00722551578655839,-0.02975882776081562,0.03107093647122383,0.00827006809413433,-0.006420270539820194,0.015328808687627316,0.023786012083292007,-0.016148095950484276,0.004092239774763584,0.02009262703359127,-0.035781409591436386,0.006411979906260967,0.014072016812860966,0.004471402615308762,-0.04843557998538017,-0.008995657786726952,-0.04335145652294159,-0.018640127032995224,0.0552542507648468,0.014477216638624668,-0.06841187924146652,0.051496513187885284,0.03295724838972092,0.01148887537419796,-0.05165618658065796,0.040265604853630066,0.014720364473760128,0.017544686794281006,-0.00281142583116889,0.03314514830708504,-0.023845279589295387,-0.03187233582139015,0.010026962496340275,-0.019111433997750282,0.004449419677257538,0.04070555791258812,0.027090251445770264,-0.0342208594083786,-0.03712422028183937,0.0014657943975180387,0.032578546553850174,0.0024160966277122498,0.02003108523786068,0.026627782732248306,-0.01779230125248432,0.02081887051463127,-0.020231597125530243,-0.039117638021707535,0.020434707403182983,-0.023930832743644714,-0.008620625361800194,0.014237175695598125,0.04525265842676163,0.005184984300285578,-0.014564458280801773,0.006583687383681536,-0.0035702052991837263,-0.027435701340436935,-0.13379645347595215,0.04545695707201958,-0.03867752104997635,0.014061558991670609,-0.05505438894033432,0.022334177047014236,-0.014629987999796867,-0.030624626204371452,0.02181823179125786,-0.045093752443790436,-0.0036148945800960064,-0.01789141446352005,0.010854148305952549,-0.031354647129774094,0.01443653553724289,0.0214593056589365,-0.011599159799516201,-0.007425217889249325,-0.02199871651828289,0.06256161630153656,-0.013556183315813541,0.01311284676194191,0.07289109379053116,0.003266741521656513,0.034991130232810974,0.004009706433862448,-0.03818763419985771,-0.024781901389360428,-0.02143462374806404,-0.05555910989642143,0.025831719860434532,-0.03859579190611839,0.006647555623203516,0.021763112396001816,-0.018491152673959732,-0.03785162791609764,0.013051222078502178,-0.011362537741661072,-0.0025760286953300238,0.0314117930829525,-0.03919622302055359,0.01826321892440319,-0.010163156315684319,0.019857531413435936,-0.034915100783109665,0.0852024033665657,0.01641910895705223,-0.03729945793747902,-0.0427929051220417,0.005568993743509054,0.025408366695046425,-0.028876282274723053,0.015173639170825481,0.02968421019613743,0.0032227560877799988,-0.010036581195890903,-0.06317150592803955,-0.04358324036002159,-0.03471659868955612,0.030965443700551987,-0.0111908670514822,0.014608439989387989,-0.03144891560077667,0.007844931446015835,-0.016036449000239372,0.04558597877621651,-0.06071924790740013,0.030523430556058884,-0.004967262037098408,0.035262539982795715,-0.02804628387093544,-0.014884618110954762,0.02816721983253956,0.02997058629989624,-0.024515127763152122,-0.001911139115691185,0.005133076570928097,-0.00218051765114069,-0.01580033078789711,-0.035085391253232956,-0.0003415510873310268,0.02455086261034012,-0.026963399723172188,-0.02075214684009552,0.0033019252587109804,0.016864726319909096,-0.026088861748576164,-0.0066171870566904545,-0.11468454450368881,-0.02878418378531933,-0.050216156989336014,-0.042537905275821686,0.018349550664424896,-0.0013588799629360437,-0.028596317395567894,0.003940491005778313,-0.010939390398561954,-0.05263529717922211,0.029057517647743225,-0.01740727387368679,0.02227526158094406,-0.046699751168489456,-0.0033920225687325,-0.015343843959271908,-0.0020122453570365906,-0.007584340404719114,0.022151261568069458,-0.025743121281266212,0.036557067185640335,-0.036352865397930145,-0.003121069399639964,0.013461289927363396,-0.009038339368999004,0.01333081629127264,-0.03564798831939697,-0.02169346995651722,0.0033228183165192604,0.03275715559720993,-0.03184100240468979,-0.004588499665260315,0.04122821241617203,0.015549987554550171,0.007187658455222845,-0.03374095633625984,0.0014898653607815504,0.03201808035373688,-0.005477038212120533,0.002231889870017767,0.008937407284975052,-0.034491319209337234,0.0013420816976577044,0.0006290778401307762,0.008458304218947887,0.011745236814022064,0.029860761016607285,-0.02193007431924343,-0.03554430976510048,0.03123691864311695,-0.0015862185973674059,-0.07413898408412933,-0.024637218564748764,-0.004821505397558212,-0.015008574351668358,-0.027930809184908867,-0.037209104746580124,-0.021109772846102715,0.050851937383413315,-6.5995154727716e-05,-0.02256534807384014,-0.02833365648984909,-0.01117891725152731,0.01428561843931675,0.045802727341651917,0.006016444880515337,0.04312177747488022,-0.0018184349173679948,-0.03761845454573631,0.022054079920053482,-0.004342833999544382,0.09962143748998642,0.009291186928749084,0.01067589782178402,0.003748643444851041,-0.06794323027133942,0.030323456972837448,0.0028960995841771364,0.008278937079012394,-0.028460847213864326,-0.0052156285382807255,0.0244363471865654,0.028110038489103317,0.0023403598461300135,-0.009781289845705032,0.036048583686351776,0.012431710958480835,-0.0017750852275639772,0.02165863662958145,0.03657567501068115,0.03636753559112549,0.01642191968858242,-0.003923258278518915,-0.0035186507739126682,0.026920286938548088,0.03734491392970085,0.014838336035609245,-0.012363350950181484,-0.01973479986190796,0.0377703532576561,0.04488313943147659,-0.005692662671208382,-0.02525172010064125,0.0033019487746059895,0.04112846776843071,-0.008849019184708595,0.06359096616506577,0.045251138508319855,0.0017144223675131798,-0.02304399572312832,0.021567026153206825,0.05156014859676361,-0.007743484806269407,-0.018373539671301842,0.008733629249036312,-0.0032044255640357733,0.00013157761713955551,-0.0019823750481009483,-0.023436982184648514,-0.05920226499438286,-0.03450678661465645,0.043862681835889816,-0.030114447697997093,-0.021706165745854378,0.0386580266058445,0.02711455710232258,-0.0010119522921741009,-0.004286781884729862,0.03489159420132637,-0.021339891478419304,0.014044038951396942,0.024688927456736565,0.06350915879011154,0.022546915337443352,0.01004242803901434,-0.02069641277194023,-0.0007278768462128937,-0.007288195192813873,0.001313652261160314,0.07242473214864731,0.0033342877868562937,-0.0031758833210915327,0.0030982615426182747,0.02827189862728119,-0.0027856656815856695,0.024835165590047836,0.004587970208376646,0.012313802726566792,0.045346058905124664,-0.013794248923659325,-0.0020411433652043343,-0.02325688861310482,0.0020357912871986628,-0.0008881085086613894,-0.02426600083708763,-0.057811882346868515
onlinemedia.idea2mobile.com_chunk4.txt,-0.032555848360061646,-0.025322606787085533,-0.002805597148835659,0.028734629973769188,-0.002689798129722476,-0.06125897914171219,-0.00680569838732481,-0.005125850904732943,-0.019580641761422157,0.0470157228410244,-0.0007456755265593529,-0.021165339276194572,-0.004666237626224756,0.010260280221700668,-0.007000719662755728,0.011232556775212288,0.0031891553662717342,0.023410996422171593,-0.015712155029177666,-0.02064247615635395,0.024485263973474503,0.021823884919285774,0.022439973428845406,0.005863478407263756,-0.01718810386955738,0.024081287905573845,0.016932504251599312,-0.02305714599788189,0.05028446763753891,0.03213012218475342,0.015928730368614197,-0.015361460857093334,0.040277134627103806,0.01684359647333622,-0.05219240114092827,-0.037074632942676544,0.005878790281713009,0.003775052260607481,-0.01215183176100254,0.017932191491127014,-0.0056983474642038345,0.02041591890156269,0.04469434916973114,0.00634330278262496,0.03206998109817505,-0.01981413923203945,-0.02602730505168438,0.005620336625725031,-0.022896934300661087,-0.005113990977406502,0.004666761960834265,-0.0030309315770864487,0.0077375080436468124,-0.06734628230333328,-0.015688680112361908,0.012795485556125641,-0.015266016125679016,0.009612005203962326,-0.04699551314115524,0.023830043151974678,-0.08915340155363083,-0.008951296098530293,-0.019805943593382835,-0.04144570976495743,0.00625472841784358,0.05554969981312752,-0.00605564983561635,0.031619828194379807,-0.014205330051481724,-0.03187742829322815,0.025259120389819145,0.012234609574079514,0.02452385053038597,0.01658346876502037,-0.0613873191177845,0.011734544299542904,-0.007206438574939966,0.030970297753810883,-0.04824391379952431,0.02067013829946518,-0.018444526940584183,0.010921557433903217,-0.002611739095300436,0.014181084930896759,-0.038100194185972214,0.03952362388372421,-0.016459187492728233,0.06594348698854446,-0.0016728101763874292,-0.030438803136348724,-0.04439856857061386,0.00430468050763011,0.005149369593709707,-0.012326974421739578,-0.031167475506663322,-0.0032222468871623278,-0.010194413363933563,0.030213693156838417,0.0031782921869307756,0.06563007086515427,0.04456597566604614,-0.006020126864314079,0.027339158579707146,-0.03604648634791374,0.03530672565102577,-0.005270299967378378,0.04144414886832237,-0.011281851679086685,-0.035808008164167404,-0.021230483427643776,0.007337796501815319,0.01426462922245264,-0.020985662937164307,0.031374383717775345,-0.006437635514885187,0.01374900434166193,0.026179738342761993,0.042353592813014984,-0.005511416122317314,0.012218937277793884,0.046880390495061874,0.009581846185028553,0.05809177830815315,0.0014040418900549412,-0.00609520822763443,-0.009197439067065716,0.0007121434318833053,0.02071383036673069,0.015530269593000412,-0.050150275230407715,0.03117465041577816,-0.01013231836259365,-0.005086189601570368,0.046769917011260986,-0.037013307213783264,-0.0204201377928257,0.0057380059733986855,0.01118479110300541,-0.048062801361083984,-0.01952783577144146,0.0066452487371861935,0.035315174609422684,-0.026048144325613976,-0.06800808012485504,0.05711951479315758,-0.02112511917948723,-0.01593942753970623,0.0020130639895796776,0.026409145444631577,-0.010160977020859718,-0.04491318017244339,-0.00047542148968204856,-0.03144867718219757,-0.009150602854788303,0.015224205330014229,0.003667761804535985,0.0025279491674154997,0.02538708969950676,-0.043293796479701996,0.05117565020918846,0.01461436040699482,-0.009999449364840984,0.0034291609190404415,0.04781799763441086,0.04995933920145035,0.030620964244008064,0.0383063405752182,0.01146414503455162,-0.03169385716319084,-0.05832221359014511,-0.0012467335909605026,-0.015433291904628277,0.0051984163001179695,-0.0088958740234375,-0.02383476309478283,0.008052380755543709,0.08834230154752731,0.005763102322816849,-0.02042497508227825,-0.007321784272789955,-0.03980860114097595,-0.036436378955841064,-0.0017047086730599403,-0.030592482537031174,-0.022870555520057678,-0.014168457128107548,-0.0005770268035121262,-0.0018033365486189723,-0.005455097649246454,0.05316755920648575,-0.020610203966498375,-0.05290316045284271,0.03642415255308151,0.02588667906820774,0.03696516156196594,-0.0394754596054554,0.0001518507779110223,-0.01327306404709816,0.034173134714365005,-0.06340623646974564,0.010698206722736359,0.049157679080963135,0.017743056640028954,-0.0500669851899147,-0.037409406155347824,0.024745667353272438,-0.012944401241838932,-0.017762506380677223,0.0047875940799713135,-0.011060957796871662,0.03921138122677803,0.029919689521193504,-0.022503620013594627,0.0011223942274227738,0.008624138310551643,0.03368701785802841,-0.05432015657424927,0.01780250482261181,0.021588701754808426,-0.03101913072168827,-0.02529710903763771,0.036236733198165894,0.015540054999291897,0.018368488177657127,-0.024752575904130936,-0.017516659572720528,0.012982952408492565,-0.002450445434078574,0.03595169633626938,0.002567533403635025,-0.0011255370918661356,-0.0019108153646811843,-0.019566848874092102,-0.06326516717672348,0.023690488189458847,-0.023489678278565407,-0.03377583622932434,0.034556396305561066,0.0012282393872737885,0.01048531848937273,-0.010724838823080063,-0.03922034427523613,0.0047981468960642815,-0.022556597366929054,-0.06446262449026108,-0.05475820228457451,0.043886613100767136,0.017136581242084503,-0.04040355235338211,0.02103332057595253,0.029839735478162766,0.035268351435661316,-0.00118441937956959,0.03624582290649414,0.0010477673495188355,-0.006792878732085228,0.012849416583776474,-0.026855699717998505,-0.014799798838794231,-0.018799040466547012,0.008115813136100769,0.0035185539163649082,0.01959984563291073,0.01435068529099226,0.057067349553108215,0.003719886764883995,0.025184856727719307,-0.019968735054135323,0.03738303855061531,0.007834574207663536,0.009730366058647633,0.035112399607896805,-0.020771631971001625,-0.019289586693048477,0.003921969793736935,0.04355483129620552,-0.01624525710940361,-0.02785763144493103,0.07033108919858932,0.01795424520969391,-0.019428204745054245,-0.009112510830163956,0.023460399359464645,0.01721210964024067,0.01935596950352192,-0.014395245350897312,0.01830204576253891,0.0044407593086361885,0.03531000390648842,-0.09162850677967072,-0.012313601560890675,0.006626545451581478,0.052960723638534546,-0.044644005596637726,-0.006551636848598719,0.03191729262471199,-0.00013942745863460004,-0.15635699033737183,0.010495185852050781,0.0028725534211844206,0.017797240987420082,-0.024819189682602882,0.015617181546986103,-0.020545922219753265,-0.02727205492556095,-0.07043169438838959,0.003146079368889332,-0.05661269649863243,-0.05591406673192978,0.015722457319498062,-0.0036023936700075865,-0.0026081332471221685,-0.013160870410501957,-0.011349115520715714,-0.041662320494651794,-0.03693779930472374,-0.023183997720479965,-0.004429338965564966,-0.08916968107223511,0.034887492656707764,0.014820271171629429,0.025298750028014183,-0.06041226536035538,-0.024453721940517426,0.02267075516283512,-0.015483161434531212,-0.02353324554860592,-0.009993488900363445,0.01720154844224453,0.00559011846780777,0.0038686469197273254,0.04476384073495865,0.0212517399340868,-0.027388913556933403,0.02619805559515953,-0.000657467870041728,-0.014528036117553711,0.01609472557902336,0.0256627406924963,-0.013353316113352776,0.06731877475976944,0.021062394604086876,0.018593192100524902,0.0156647227704525,0.000650755304377526,0.00907273031771183,-0.03380175307393074,-0.004651505034416914,-0.06398119032382965,0.010117331519722939,0.024250604212284088,-0.02549796923995018,-0.023094099014997482,0.005984844174236059,0.021566202864050865,-0.003666449338197708,-0.049725670367479324,-0.013446960598230362,-0.03671916574239731,-0.023766566067934036,0.043843112885951996,-0.009639310650527477,0.03932172805070877,0.06854314357042313,0.011070757173001766,0.037812739610672,-0.022712474688887596,0.04468052461743355,-0.042122118175029755,-0.013600189238786697,0.06238070875406265,0.029107019305229187,0.021899210289120674,-0.044805895537137985,-0.0836343988776207,0.01409045048058033,-0.08268511295318604,0.021286247298121452,0.053900253027677536,0.012474345043301582,0.019449729472398758,0.010063602589070797,-0.011697311885654926,0.009910290129482746,0.010193862952291965,0.023497479036450386,0.234524667263031,0.019281301647424698,0.004632440861314535,-0.015931719914078712,0.02540486492216587,-0.001134629943408072,-0.042500343173742294,0.04154186695814133,-0.008296143263578415,-0.02542683482170105,0.028556818142533302,0.033766429871320724,-0.0013165525160729885,0.014431596733629704,0.011139756068587303,0.00630309758707881,-0.0026334123685956,-0.017632145434617996,0.0451178140938282,0.003777062753215432,0.013008509762585163,0.017405183985829353,0.0078113991767168045,0.01830226369202137,-0.09719876199960709,0.02687515690922737,-0.014989455230534077,-0.022892875596880913,-0.0283457413315773,0.04902263730764389,-0.03265915811061859,0.08241274207830429,0.02010531723499298,-0.008725712075829506,0.0035281521268188953,-0.006479107774794102,0.07045281678438187,-0.009615751914680004,0.034172482788562775,0.04605093598365784,-0.02391306683421135,-0.03316457197070122,-0.023330576717853546,0.013523145578801632,0.014777787029743195,0.02379383146762848,0.018712617456912994,-0.029275929555296898,-0.014020735397934914,0.021205876022577286,-0.021218091249465942,-0.01873861439526081,0.02528170496225357,-0.005078541114926338,0.0041670119389891624,0.025968100875616074,-0.009590798057615757,0.02461189404129982,-0.028046803548932076,0.030314860865473747,-0.02884301170706749,-0.011567383073270321,-0.05077041685581207,0.010105487890541553,0.02357032522559166,-0.01983366534113884,0.028291326016187668,-0.012213001027703285,0.013803661800920963,0.007883674465119839,0.017887944355607033,0.024825114756822586,0.03096829354763031,-0.009672382846474648,-0.007655733730643988,-0.012976660393178463,0.014362191781401634,0.03762403875589371,-0.020890379324555397,-0.006447974592447281,-0.014119304716587067,-0.02277417667210102,0.007532924879342318,-0.021383896470069885,-0.012679405510425568,-0.008743205107748508,-0.031175438314676285,0.056829918175935745,0.016394639387726784,-0.026268411427736282,-0.012965144589543343,0.001134562655352056,-0.027393558993935585,0.022176072001457214,0.008257445879280567,0.008517892099916935,0.016646917909383774,-0.0032703231554478407,-0.01911507546901703,-0.045341525226831436,0.015242212451994419,-0.01226811669766903,-0.007587909232825041,-0.0160805843770504,0.025130562484264374,-0.020752787590026855,0.0007511673029512167,-0.004705676808953285,0.019371062517166138,0.05962226167321205,0.006537823937833309,0.03768487274646759,-3.7145957321627066e-05,-0.05380630865693092,0.016672678291797638,0.016922462731599808,0.04470071569085121,0.007059093099087477,0.0029297794681042433,0.03893924131989479,-0.0047262259759008884,0.026189155876636505,-0.0019739388953894377,-0.008601067587733269,-0.01919437013566494,-0.03837957605719566,-0.025924455374479294,0.031563401222229004,-0.007782213855534792,0.060024939477443695,0.04996756464242935,-0.027929993346333504,0.01723717339336872,0.012333166785538197,0.05036119744181633,0.0030476420652121305,-0.024729745462536812,0.04007731005549431,0.007353025488555431,0.02976701408624649,-0.01357356272637844,0.015990687534213066,-0.014389794319868088,-0.052392397075891495,0.01787288673222065,-0.008293253369629383,0.0045513249933719635,-0.027980556711554527,-0.030851062387228012,-0.016518888995051384,-0.008969342336058617,-0.002623099135234952,0.041712287813425064,-0.03303708881139755,-0.028222069144248962,-0.020129960030317307,-0.014947924762964249,-0.03732634335756302,0.02560863457620144,-0.040356267243623734,-0.00454142689704895,0.0224826168268919,0.005605421494692564,0.07925372570753098,0.03457354009151459,0.07503027468919754,0.018763519823551178,-0.0011976949172094464,0.06749453395605087,-0.0590117983520031,-0.0069069587625563145,-0.0039320639334619045,-0.020763039588928223,0.01770365796983242,0.0025840220041573048,-0.014704298228025436,-0.07029113173484802,0.010344603098928928,0.03755854442715645,-0.02133692055940628,0.005957482848316431,-0.0440220981836319,-0.03339693695306778,-0.05145397037267685,0.02277768775820732,0.004812847822904587,0.0027528523933142424,-0.024364689365029335,-0.00780839566141367,-0.05419430136680603,-0.00513095548376441,0.07733068615198135,-0.012147328816354275,0.0015741516835987568,0.005372879095375538,-0.0158190056681633,0.015867842361330986,0.05668754503130913,0.02489488199353218,0.04655216261744499,-0.016259007155895233,-0.012956303544342518,-0.007383239921182394,-0.02368350699543953,-0.01854741759598255,0.009429726749658585,0.029536040499806404,0.05811510607600212,-0.032880011945962906,0.02094172313809395,-0.009440395049750805,-0.015388461761176586,-0.07436446100473404,-0.04102114588022232,-0.016480570659041405,0.006107847206294537,0.013392559252679348,0.03306546434760094,-0.05327143892645836,0.006885424256324768,0.015195539221167564,0.009938954375684261,0.014824561774730682,-0.06627208739519119,-0.0009037895360961556,0.0363590344786644,-0.013034098781645298,-0.045766040682792664,-0.004423731006681919,0.05463753268122673,-0.0014884388074278831,-0.027883805334568024,-0.023090075701475143,-0.002221314702183008,-0.01344528142362833,0.008846551179885864,-0.016447627916932106,0.030546093359589577,0.023922082036733627,-0.02644607052206993,-0.01852184534072876,-0.0030714066233485937,0.03677935153245926,0.02596915513277054,-0.038289524614810944,-0.02954302541911602,0.009391412138938904,0.011050782166421413,-0.030786236748099327,0.006056053098291159,0.018446704372763634,-0.08064748346805573,-0.051782190799713135,0.0015373112400993705,-0.010489978827536106,0.069906085729599,-0.026346299797296524,0.0002791627775877714,0.0300416499376297,-0.035841017961502075,-0.014142300933599472,-0.0016396893188357353,0.008997313678264618,-0.004844676703214645,-0.030084839090704918,-0.0032844278030097485,-0.02423188090324402,0.007727447897195816,-0.020073501393198967,-0.033322811126708984,-0.014789682812988758,0.013042795471847057,-0.03437226265668869,-0.07900279760360718,0.06610467284917831,0.006969669368118048,-0.038881756365299225,-0.009768321178853512,0.01702878810465336,0.04592669755220413,-0.02640695311129093,0.03324104845523834,0.014241766184568405,0.04301917552947998,-0.014795996248722076,0.02998954802751541,0.010675543919205666,-0.004584918729960918,0.0012192813446745276,-0.05714818090200424,-0.00023301654437091202,0.013910730369389057,-0.0236523300409317,-0.018885450437664986,0.020229818299412727,0.0013325317995622754,-0.016814734786748886,0.025299236178398132,-0.03005867637693882,-0.03654247894883156,-0.038700319826602936,0.004594172816723585,0.0005274355644360185,0.007772387005388737,-0.016105303540825844,0.0042795948684215546,-0.012538491748273373,-0.036680854856967926,0.04987684264779091,0.033086035400629044,-0.07108985632658005,-0.039453115314245224,-0.031094221398234367,0.032593581825494766,-0.04145648330450058,-0.03208182007074356,0.02656554989516735,-0.018866410478949547,-0.03297600895166397,0.0021190443076193333,-0.021337732672691345,-0.028949178755283356,-0.04647378623485565,-0.0164894238114357,-0.023979078978300095,-0.006859246641397476,-0.02133963070809841,-0.006926907226443291,-0.00146884610876441,-0.033052053302526474,-0.03765454143285751,-0.00687241367995739,-0.04641694948077202,0.014921188354492188,0.039208199828863144,-0.014778584241867065,0.048974886536598206,-0.00999427493661642,0.02885223552584648,0.04027731344103813,0.007369813974946737,0.03611207753419876,0.0675211176276207,0.0033237638417631388,0.016188787296414375,0.0039341989904642105,-0.036294516175985336,0.022587338462471962,-0.015479658730328083,0.01298734825104475,-0.012102635577321053,-0.009019255638122559,-0.02607310749590397,-0.024423837661743164,0.01705133728682995,0.030105136334896088,-0.034993015229701996,0.015460950322449207,0.019668731838464737,0.003704516915604472,-0.018280399963259697,0.0782991275191307,-0.022510075941681862,-0.013257070444524288,-0.02910204604268074,0.010039367713034153,0.004695219453424215,-0.028443317860364914,-0.005298081785440445,-0.02558041363954544,-0.017069634050130844,-0.014440405182540417,0.011244759894907475,-0.02642621099948883,-0.034342654049396515,0.0723705142736435,-0.0047597140073776245,0.04163568094372749,-0.015076219104230404,0.04296005889773369,0.003465532325208187,-0.019584747031331062,-0.038671061396598816,-0.028809871524572372,0.021022778004407883,-0.018304791301488876,-0.014409585855901241,0.028255518525838852,0.0590229406952858,-0.007928187027573586,0.014933876693248749,-0.022830398753285408,-0.044873375445604324,-0.03912559896707535,-0.13757778704166412,0.029631156474351883,-0.052518557757139206,0.010770725086331367,-0.051130086183547974,0.009622564539313316,-0.008618890307843685,-0.007525111082941294,0.01720139943063259,-0.0317496694624424,0.002692726906388998,0.029051516205072403,0.03441423550248146,-0.010991149581968784,0.011006447486579418,0.006624148692935705,-0.035456039011478424,-0.03458812087774277,0.009972924366593361,0.039359427988529205,0.009697829373180866,-0.019707784056663513,-0.012656714767217636,0.01130190584808588,0.019007422029972076,0.006790571380406618,-0.028383919969201088,0.002943440806120634,-0.03024960123002529,-0.04963667690753937,0.03275562450289726,-0.05352967604994774,-0.0031700562685728073,0.04647247865796089,0.015331698581576347,0.002528168261051178,0.0026583587750792503,-0.0023236265406012535,-0.015458790585398674,-0.008813147433102131,-0.0027126010973006487,0.021873705089092255,-0.039155758917331696,0.0366341732442379,-0.004124186001718044,0.06613922119140625,0.022419385612010956,-0.002368688117712736,-0.03717781603336334,0.006297240033745766,0.014707449823617935,-0.01996666193008423,-0.023627040907740593,0.06836756318807602,0.027538197115063667,-0.00957492459565401,-0.04486171156167984,-0.03267722949385643,-0.009209118783473969,0.09822490066289902,-0.03642234206199646,0.021622270345687866,-0.049077678471803665,-0.0426681786775589,-0.018007157370448112,-0.004330541472882032,-0.0702475979924202,0.0367237851023674,-0.009989755228161812,0.0012251004809513688,-0.006812746170908213,-0.005101755727082491,0.006573038641363382,0.00897250510752201,0.02000581845641136,-0.04389403760433197,-0.023120082914829254,-0.0057189855724573135,-0.020421257242560387,-0.06091555953025818,0.003054671222344041,0.029405271634459496,-0.048433080315589905,0.02901267819106579,0.026887036859989166,0.013927501626312733,-0.054429829120635986,0.03685896471142769,-0.11172062158584595,-0.020287010818719864,-0.056495536118745804,-0.015859229490160942,-0.002166958525776863,-0.0011296176817268133,-0.041930779814720154,-0.028126752004027367,0.008158193901181221,-0.04304355010390282,0.0005303004290908575,-0.013825641945004463,0.0421854630112648,-0.011064608581364155,-0.01029318105429411,-0.02011946402490139,-0.05886772647500038,-0.0014711394906044006,0.07592761516571045,0.01076003909111023,-0.004605193622410297,-0.03233473375439644,0.0007410346297547221,0.005334821529686451,0.01127459853887558,0.006954568438231945,-0.0600203201174736,0.00043843997991643846,0.03388388454914093,0.04165653884410858,-0.04099702462553978,0.004530113190412521,0.04978339001536369,-0.0049958904273808,0.008807143196463585,-0.021254640072584152,-0.01233966089785099,0.044631313532590866,-0.020871829241514206,0.018594933673739433,-0.01649712771177292,-0.01867642253637314,0.0021861200220882893,-0.005020743235945702,-0.010745428502559662,0.023459989577531815,0.023056605830788612,0.013747459277510643,-0.011248806491494179,0.027228256687521935,0.008714296855032444,-0.03141945227980614,-0.008829755708575249,-0.028120769187808037,-0.036382466554641724,-0.01370439026504755,-0.019282061606645584,0.011092501692473888,0.055162541568279266,0.013351891189813614,-0.019803326576948166,-0.012069211341440678,-0.022778663784265518,0.014492519199848175,0.0226577315479517,0.03463761508464813,0.004410729743540287,-0.008154334500432014,0.0006074841367080808,-0.0046625579707324505,-0.0275281835347414,0.04713199660181999,-0.005538446828722954,-0.0158454068005085,-0.01815667189657688,-0.05247434228658676,0.02219243347644806,0.0316794253885746,-0.005509191658347845,-0.03331821411848068,0.012043455615639687,0.015089950524270535,0.004988705739378929,-0.010095378383994102,-0.015267566777765751,0.023337475955486298,0.020329101011157036,0.008693991228938103,0.003811880014836788,0.028609730303287506,0.012103047221899033,0.00210859184153378,0.012882218696177006,-0.02190379612147808,0.029121359810233116,0.06029290705919266,0.030587706714868546,0.02308736741542816,-0.03487466648221016,0.017014848068356514,0.05530113726854324,-0.019952181726694107,-0.015579628758132458,-0.03238656371831894,0.012861504219472408,-0.026377547532320023,0.03272628411650658,0.05326908826828003,-0.005508473142981529,-0.0016192611074075103,0.034324806183576584,0.06518745422363281,-0.029703902080655098,-0.015199384652078152,0.005256065633147955,-0.027806157246232033,0.022821174934506416,-0.012720621190965176,-0.014632139354944229,-0.038746222853660583,0.002550954930484295,-0.010317719541490078,0.0034080056939274073,-0.001125724520534277,0.025374842807650566,0.03198183327913284,0.005820014048367739,0.010183158330619335,0.053155943751335144,-0.04583705961704254,0.030996207147836685,0.011632250621914864,0.007011420093476772,-0.006347209680825472,0.006947152782231569,-0.034654952585697174,-0.009601699188351631,-0.04600078985095024,-0.012238414958119392,0.006928992457687855,-0.004760840907692909,0.01317677553743124,-0.0076967100612819195,0.0026381860952824354,-0.0009723528055474162,0.0003832973598036915,0.0002923104621004313,0.007038162089884281,0.013023292645812035,-0.009398694150149822,0.008123183622956276,-0.052942585200071335,-0.027133550494909286,0.005986744537949562,0.03989258036017418,-0.013771786354482174
